booster[0]:
0:[f20<0.945648193] yes=1,no=2,missing=2
	1:[f20<-0.277507216] yes=3,no=4,missing=4
		3:[f20<-0.603076696] yes=7,no=8,missing=8
			7:[f20<-0.819042087] yes=15,no=16,missing=16
				15:leaf=-0.144692212
				16:leaf=-0.109037913
			8:[f20<-0.411107451] yes=17,no=18,missing=18
				17:[f20<-0.514226079] yes=25,no=26,missing=26
					25:leaf=-0.0846347436
					26:leaf=-0.0692769215
				18:[f20<-0.348198593] yes=27,no=28,missing=28
					27:leaf=-0.0589252301
					28:leaf=-0.0487275198
		4:[f20<0.161557585] yes=9,no=10,missing=10
			9:[f20<-0.0998059586] yes=19,no=20,missing=20
				19:[f20<-0.213301301] yes=29,no=30,missing=30
					29:leaf=-0.0376641452
					30:leaf=-0.0256227162
				20:[f20<0.0577904172] yes=31,no=32,missing=32
					31:leaf=-0.00660988549
					32:leaf=0.0165058356
			10:[f20<0.50398922] yes=21,no=22,missing=22
				21:[f20<0.307480156] yes=33,no=34,missing=34
					33:leaf=0.0350741036
					34:leaf=0.0616732426
				22:[f27<-1.52748752] yes=35,no=36,missing=36
					35:leaf=0.0729508325
					36:leaf=0.114789121
	2:[f20<2.21679592] yes=5,no=6,missing=6
		5:[f20<1.54555213] yes=11,no=12,missing=12
			11:[f7<-0.0432231501] yes=23,no=24,missing=24
				23:leaf=0.0358686447
				24:[f20<1.26343513] yes=37,no=38,missing=38
					37:leaf=0.168488845
					38:leaf=0.215826735
			12:leaf=0.279373735
		6:[f20<2.96716213] yes=13,no=14,missing=14
			13:leaf=0.387367934
			14:leaf=0.519998848
booster[1]:
0:[f20<0.945648193] yes=1,no=2,missing=2
	1:[f20<-0.277507216] yes=3,no=4,missing=4
		3:[f20<-0.61280489] yes=7,no=8,missing=8
			7:[f20<-0.859251857] yes=15,no=16,missing=16
				15:leaf=-0.132201359
				16:[f20<-0.715923488] yes=25,no=26,missing=26
					25:leaf=-0.107260905
					26:leaf=-0.0914494544
			8:[f20<-0.450020134] yes=17,no=18,missing=18
				17:[f20<-0.514226079] yes=27,no=28,missing=28
					27:leaf=-0.0773372054
					28:leaf=-0.0647864267
				18:[f20<-0.367006391] yes=29,no=30,missing=30
					29:leaf=-0.0562678352
					30:leaf=-0.0450122319
		4:[f20<0.161557585] yes=9,no=10,missing=10
			9:[f20<-0.0894292444] yes=19,no=20,missing=20
				19:[f20<-0.188656598] yes=31,no=32,missing=32
					31:leaf=-0.0327048264
					32:leaf=-0.0209840555
				20:[f27<0.941172242] yes=33,no=34,missing=34
					33:leaf=-0.00346554187
					34:leaf=0.022658309
			10:[f20<0.50398922] yes=21,no=22,missing=22
				21:[f20<0.34639284] yes=35,no=36,missing=36
					35:leaf=0.0331359766
					36:leaf=0.0579633676
				22:[f20<0.682339013] yes=37,no=38,missing=38
					37:leaf=0.0808508918
					38:leaf=0.110276535
	2:[f20<2.36855531] yes=5,no=6,missing=6
		5:[f20<1.71287668] yes=11,no=12,missing=12
			11:[f20<1.26343513] yes=23,no=24,missing=24
				23:[f7<-0.0432231501] yes=39,no=40,missing=40
					39:leaf=0.0340752117
					40:leaf=0.152061179
				24:leaf=0.206067681
			12:leaf=0.279687732
		6:[f20<3.10789633] yes=13,no=14,missing=14
			13:leaf=0.367548585
			14:leaf=0.476017803
booster[2]:
0:[f20<1.0221765] yes=1,no=2,missing=2
	1:[f20<-0.119262308] yes=3,no=4,missing=4
		3:[f20<-0.573243618] yes=7,no=8,missing=8
			7:[f20<-0.791803241] yes=15,no=16,missing=16
				15:[f20<-0.922809243] yes=27,no=28,missing=28
					27:leaf=-0.122969843
					28:leaf=-0.105724476
				16:[f20<-0.673768103] yes=29,no=30,missing=30
					29:leaf=-0.0901801884
					30:leaf=-0.0775730237
			8:[f20<-0.329390794] yes=17,no=18,missing=18
				17:[f20<-0.450020134] yes=31,no=32,missing=32
					31:leaf=-0.0616494901
					32:leaf=-0.0483463928
				18:[f20<-0.217841104] yes=33,no=34,missing=34
					33:leaf=-0.0340405814
					34:leaf=-0.0218333397
		4:[f20<0.382711351] yes=9,no=10,missing=10
			9:[f20<0.0707613081] yes=19,no=20,missing=20
				19:[f27<-0.00304822996] yes=35,no=36,missing=36
					35:leaf=-0.0116471611
					36:leaf=0.00023022863
				20:[f27<-0.585151136] yes=37,no=38,missing=38
					37:leaf=0.00983450934
					38:leaf=0.0334290192
			10:[f20<0.604513645] yes=21,no=22,missing=22
				21:[f27<0.125963315] yes=39,no=40,missing=40
					39:leaf=0.0443572663
					40:leaf=0.0721625611
				22:[f27<-0.704431295] yes=41,no=42,missing=42
					41:leaf=0.072970733
					42:leaf=0.106664144
	2:[f20<2.42497873] yes=5,no=6,missing=6
		5:[f20<1.71287668] yes=11,no=12,missing=12
			11:[f20<1.26343513] yes=23,no=24,missing=24
				23:leaf=0.139576748
				24:[f0<0.196855888] yes=43,no=44,missing=44
					43:leaf=0.0510239117
					44:leaf=0.18735218
			12:[f27<-1.13510156] yes=25,no=26,missing=26
				25:leaf=0.200704649
				26:leaf=0.27183044
		6:[f20<2.66688609] yes=13,no=14,missing=14
			13:leaf=0.302163094
			14:leaf=0.4126966
booster[3]:
0:[f20<0.945648193] yes=1,no=2,missing=2
	1:[f20<-0.28334412] yes=3,no=4,missing=4
		3:[f20<-0.603076696] yes=7,no=8,missing=8
			7:[f20<-0.859251857] yes=15,no=16,missing=16
				15:leaf=-0.107338086
				16:[f20<-0.738622546] yes=27,no=28,missing=28
					27:leaf=-0.0880813897
					28:leaf=-0.0746062547
			8:[f20<-0.397487998] yes=17,no=18,missing=18
				17:[f20<-0.514226079] yes=29,no=30,missing=30
					29:leaf=-0.0621105209
					30:leaf=-0.049981907
				18:[f27<0.444581598] yes=31,no=32,missing=32
					31:leaf=-0.0404779091
					32:leaf=-0.0287142824
		4:[f20<0.161557585] yes=9,no=10,missing=10
			9:[f20<-0.0894292444] yes=19,no=20,missing=20
				19:[f27<0.125963315] yes=33,no=34,missing=34
					33:leaf=-0.0268021952
					34:leaf=-0.0167627353
				20:[f20<0.0577904172] yes=35,no=36,missing=36
					35:leaf=-0.00398243824
					36:leaf=0.0129308701
			10:[f20<0.50398922] yes=21,no=22,missing=22
				21:[f20<0.307480156] yes=37,no=38,missing=38
					37:leaf=0.0255551822
					38:leaf=0.0457035601
				22:[f27<0.26915127] yes=39,no=40,missing=40
					39:leaf=0.069051072
					40:leaf=0.0969586521
	2:[f20<2.21679592] yes=5,no=6,missing=6
		5:[f20<1.47486067] yes=11,no=12,missing=12
			11:[f27<-1.61367321] yes=23,no=24,missing=24
				23:leaf=0.0890578851
				24:leaf=0.142885178
			12:[f27<-0.391922444] yes=25,no=26,missing=26
				25:leaf=0.169056132
				26:leaf=0.21734634
		6:[f20<2.88349986] yes=13,no=14,missing=14
			13:leaf=0.277050346
			14:leaf=0.377187431
booster[4]:
0:[f20<1.0221765] yes=1,no=2,missing=2
	1:[f20<-0.160769165] yes=3,no=4,missing=4
		3:[f20<-0.597239792] yes=7,no=8,missing=8
			7:[f20<-0.819042087] yes=15,no=16,missing=16
				15:[f20<-0.972747207] yes=27,no=28,missing=28
					27:leaf=-0.104733765
					28:leaf=-0.0898635313
				16:[f20<-0.715923488] yes=29,no=30,missing=30
					29:leaf=-0.0771628544
					30:leaf=-0.0661572665
			8:[f20<-0.367006391] yes=17,no=18,missing=18
				17:[f20<-0.47725901] yes=31,no=32,missing=32
					31:leaf=-0.0527302809
					32:leaf=-0.0422196425
				18:[f20<-0.263239235] yes=33,no=34,missing=34
					33:leaf=-0.0320729725
					34:leaf=-0.0219976902
		4:[f20<0.282186896] yes=9,no=10,missing=10
			9:[f20<0.0577904172] yes=19,no=20,missing=20
				19:[f27<-0.177374467] yes=35,no=36,missing=36
					35:leaf=-0.0132697513
					36:leaf=-0.00195084792
				20:[f27<0.097104013] yes=37,no=38,missing=38
					37:leaf=0.00857423525
					38:leaf=0.0254160557
			10:[f20<0.604513645] yes=21,no=22,missing=22
				21:[f27<-0.177374467] yes=39,no=40,missing=40
					39:leaf=0.0264413245
					40:leaf=0.0520530641
				22:[f27<-0.0552471839] yes=41,no=42,missing=42
					41:leaf=0.0669198632
					42:leaf=0.0932096913
	2:[f20<2.5624702] yes=5,no=6,missing=6
		5:[f20<1.71287668] yes=11,no=12,missing=12
			11:[f27<-0.56190002] yes=23,no=24,missing=24
				23:leaf=0.11012429
				24:[f20<1.21544278] yes=43,no=44,missing=44
					43:leaf=0.114696324
					44:leaf=0.159877121
			12:[f27<-1.13510156] yes=25,no=26,missing=26
				25:leaf=0.167122588
				26:leaf=0.22936666
		6:[f27<-1.94836438] yes=13,no=14,missing=14
			13:leaf=0.225134209
			14:leaf=0.340329856
booster[5]:
0:[f20<0.808156729] yes=1,no=2,missing=2
	1:[f20<-0.372843295] yes=3,no=4,missing=4
		3:[f20<-0.673768103] yes=7,no=8,missing=8
			7:[f20<-0.887787879] yes=15,no=16,missing=16
				15:leaf=-0.088663429
				16:[f27<0.775826514] yes=31,no=32,missing=32
					31:leaf=-0.0719477162
					32:leaf=-0.0571961701
			8:[f20<-0.514226079] yes=17,no=18,missing=18
				17:[f27<-0.0516087897] yes=33,no=34,missing=34
					33:leaf=-0.0589900613
					34:leaf=-0.0476684161
				18:[f27<-0.127810553] yes=35,no=36,missing=36
					35:leaf=-0.0446193926
					36:leaf=-0.0358337052
		4:[f20<0.0707613081] yes=9,no=10,missing=10
			9:[f20<-0.188656598] yes=19,no=20,missing=20
				19:[f27<0.0820524171] yes=37,no=38,missing=38
					37:leaf=-0.0300100837
					38:leaf=-0.0210249145
				20:[f20<-0.0848894343] yes=39,no=40,missing=40
					39:leaf=-0.0133779719
					40:leaf=-0.00202256325
			10:[f20<0.382711351] yes=21,no=22,missing=22
				21:[f27<-0.813958883] yes=41,no=42,missing=42
					41:leaf=0.00178612862
					42:leaf=0.0241459906
				22:[f27<0.591914356] yes=43,no=44,missing=44
					43:leaf=0.0420511886
					44:leaf=0.0679379925
	2:[f20<2.13183665] yes=5,no=6,missing=6
		5:[f20<1.26343513] yes=11,no=12,missing=12
			11:[f27<-0.321845025] yes=23,no=24,missing=24
				23:[f27<-3.59526491] yes=45,no=46,missing=46
					45:leaf=0.0272561554
					46:leaf=0.0782882869
				24:leaf=0.104636066
			12:[f27<-0.391922444] yes=25,no=26,missing=26
				25:leaf=0.127661586
				26:leaf=0.164291918
		6:[f20<3.10789633] yes=13,no=14,missing=14
			13:[f27<-0.329551041] yes=27,no=28,missing=28
				27:leaf=0.1908281
				28:leaf=0.249523863
			14:[f27<-3.59526491] yes=29,no=30,missing=30
				29:leaf=0.120422505
				30:leaf=0.324310035
booster[6]:
0:[f20<0.808156729] yes=1,no=2,missing=2
	1:[f20<-0.346252978] yes=3,no=4,missing=4
		3:[f20<-0.649771929] yes=7,no=8,missing=8
			7:[f20<-0.887787879] yes=15,no=16,missing=16
				15:leaf=-0.079849869
				16:[f27<0.460348755] yes=31,no=32,missing=32
					31:leaf=-0.0648464262
					32:leaf=-0.053143736
			8:[f20<-0.490229905] yes=17,no=18,missing=18
				17:[f27<0.581527591] yes=33,no=34,missing=34
					33:leaf=-0.0483833812
					34:leaf=-0.0341437161
				18:[f27<0.0483906642] yes=35,no=36,missing=36
					35:leaf=-0.0374763161
					36:leaf=-0.0298804492
		4:[f20<0.0707613081] yes=9,no=10,missing=10
			9:[f20<-0.160769165] yes=19,no=20,missing=20
				19:[f27<0.0483906642] yes=37,no=38,missing=38
					37:leaf=-0.0252408832
					38:leaf=-0.0167935733
				20:[f27<0.2544837] yes=39,no=40,missing=40
					39:leaf=-0.00931382645
					40:leaf=0.0015608432
			10:[f20<0.382711351] yes=21,no=22,missing=22
				21:[f27<0.0551433451] yes=41,no=42,missing=42
					41:leaf=0.00931516942
					42:leaf=0.0252535883
				22:[f27<0.697129309] yes=43,no=44,missing=44
					43:leaf=0.0384893529
					44:leaf=0.0631583259
	2:[f20<2.13183665] yes=5,no=6,missing=6
		5:[f20<1.33996344] yes=11,no=12,missing=12
			11:[f27<-0.198859066] yes=23,no=24,missing=24
				23:[f27<-3.59526491] yes=45,no=46,missing=46
					45:leaf=0.0254390724
					46:leaf=0.0718940571
				24:leaf=0.0982130095
			12:[f27<-1.7073015] yes=25,no=26,missing=26
				25:leaf=0.0934689268
				26:[f20<1.62921441] yes=47,no=48,missing=48
					47:leaf=0.125027403
					48:leaf=0.159919783
		6:[f20<3.10789633] yes=13,no=14,missing=14
			13:[f27<-0.704431295] yes=27,no=28,missing=28
				27:leaf=0.169241443
				28:leaf=0.223674327
			14:[f27<-3.59526491] yes=29,no=30,missing=30
				29:leaf=0.112394348
				30:leaf=0.292458177
booster[7]:
0:[f20<1.0221765] yes=1,no=2,missing=2
	1:[f20<-0.247025624] yes=3,no=4,missing=4
		3:[f20<-0.597239792] yes=7,no=8,missing=8
			7:[f20<-0.77364397] yes=15,no=16,missing=16
				15:[f20<-0.977935553] yes=29,no=30,missing=30
					29:leaf=-0.0786837488
					30:leaf=-0.0649272129
				16:[f27<0.279135108] yes=31,no=32,missing=32
					31:leaf=-0.0535518602
					32:leaf=-0.0437539704
			8:[f20<-0.400082201] yes=17,no=18,missing=18
				17:[f27<0.2544837] yes=33,no=34,missing=34
					33:leaf=-0.0383888297
					34:leaf=-0.0299374554
				18:[f27<-0.24437438] yes=35,no=36,missing=36
					35:leaf=-0.0295985993
					36:leaf=-0.0215759631
		4:[f20<0.282186896] yes=9,no=10,missing=10
			9:[f20<-0.047273837] yes=19,no=20,missing=20
				19:[f27<0.313852757] yes=37,no=38,missing=38
					37:leaf=-0.0148102287
					38:leaf=-0.00486553134
				20:[f27<0.321739912] yes=39,no=40,missing=40
					39:leaf=0.000925559667
					40:leaf=0.0159428697
			10:[f20<0.604513645] yes=21,no=22,missing=22
				21:[f27<0.177899554] yes=41,no=42,missing=42
					41:leaf=0.0221552197
					42:leaf=0.0423879661
				22:[f27<-0.704431295] yes=43,no=44,missing=44
					43:leaf=0.042762652
					44:leaf=0.0649704859
	2:[f20<2.42497873] yes=5,no=6,missing=6
		5:[f20<1.62921441] yes=11,no=12,missing=12
			11:[f27<-0.56190002] yes=23,no=24,missing=24
				23:leaf=0.0767819658
				24:leaf=0.107509494
			12:[f27<-0.013835636] yes=25,no=26,missing=26
				25:[f27<-2.95163178] yes=45,no=46,missing=46
					45:leaf=0.0530198403
					46:leaf=0.13039124
				26:leaf=0.168110117
		6:[f20<3.33748126] yes=13,no=14,missing=14
			13:[f27<-0.329551041] yes=27,no=28,missing=28
				27:leaf=0.165526882
				28:leaf=0.223796725
			14:leaf=0.272923559
booster[8]:
0:[f20<0.894413173] yes=1,no=2,missing=2
	1:[f20<-0.289829582] yes=3,no=4,missing=4
		3:[f20<-0.645232081] yes=7,no=8,missing=8
			7:[f20<-0.898813128] yes=15,no=16,missing=16
				15:leaf=-0.0653875992
				16:[f27<-0.359826356] yes=31,no=32,missing=32
					31:leaf=-0.0563325584
					32:leaf=-0.0462132171
			8:[f20<-0.458451211] yes=17,no=18,missing=18
				17:[f27<-0.0516087897] yes=33,no=34,missing=34
					33:leaf=-0.0403575413
					34:leaf=-0.0316516347
				18:[f27<-0.359826356] yes=35,no=36,missing=36
					35:leaf=-0.0308883023
					36:leaf=-0.0227866434
		4:[f20<0.161557585] yes=9,no=10,missing=10
			9:[f20<-0.106939957] yes=19,no=20,missing=20
				19:[f27<-0.585151136] yes=37,no=38,missing=38
					37:leaf=-0.0221041497
					38:leaf=-0.0119131673
				20:[f27<0.941172242] yes=39,no=40,missing=40
					39:leaf=-0.00263933442
					40:leaf=0.0142839821
			10:[f20<0.50398922] yes=21,no=22,missing=22
				21:[f27<-1.75816727] yes=41,no=42,missing=42
					41:leaf=-0.00143783528
					42:leaf=0.0236006659
				22:[f27<-1.52748752] yes=43,no=44,missing=44
					43:leaf=0.0215347856
					44:leaf=0.0503799617
	2:[f20<2.21679592] yes=5,no=6,missing=6
		5:[f20<1.54555213] yes=11,no=12,missing=12
			11:[f27<0.188678995] yes=23,no=24,missing=24
				23:[f7<-0.0432231501] yes=45,no=46,missing=46
					45:leaf=0.0161511302
					46:leaf=0.0669373795
				24:leaf=0.0939655602
			12:[f27<-2.39755845] yes=25,no=26,missing=26
				25:leaf=0.0681975782
				26:[f11<0.313950479] yes=47,no=48,missing=48
					47:leaf=0.0984403193
					48:leaf=0.132823735
		6:[f20<3.33748126] yes=13,no=14,missing=14
			13:[f27<-0.797143936] yes=27,no=28,missing=28
				27:leaf=0.141955689
				28:leaf=0.190855235
			14:[f27<-3.59526491] yes=29,no=30,missing=30
				29:leaf=0.0668798685
				30:leaf=0.249025449
booster[9]:
0:[f20<0.808156729] yes=1,no=2,missing=2
	1:[f20<-0.326796621] yes=3,no=4,missing=4
		3:[f20<-0.702304065] yes=7,no=8,missing=8
			7:[f20<-0.932537436] yes=15,no=16,missing=16
				15:leaf=-0.0607535727
				16:[f27<-0.207798868] yes=29,no=30,missing=30
					29:leaf=-0.0534544475
					30:leaf=-0.0442407317
			8:[f20<-0.52136004] yes=17,no=18,missing=18
				17:[f27<-0.18733874] yes=31,no=32,missing=32
					31:leaf=-0.0414855368
					32:leaf=-0.0329467356
				18:[f27<0.991634309] yes=33,no=34,missing=34
					33:leaf=-0.0256259348
					34:leaf=-0.0112367794
		4:[f20<0.0707613081] yes=9,no=10,missing=10
			9:[f20<-0.170497343] yes=19,no=20,missing=20
				19:[f27<0.0483906642] yes=35,no=36,missing=36
					35:leaf=-0.0182432458
					36:leaf=-0.0113612404
				20:[f27<-0.307167441] yes=37,no=38,missing=38
					37:leaf=-0.00999130961
					38:leaf=-0.00125567138
			10:[f20<0.382711351] yes=21,no=22,missing=22
				21:[f27<-1.44438386] yes=39,no=40,missing=40
					39:leaf=-0.00350148301
					40:leaf=0.0159003343
				22:[f27<0.697129309] yes=41,no=42,missing=42
					41:leaf=0.0275104623
					42:leaf=0.0483405888
	2:[f20<2.07411599] yes=5,no=6,missing=6
		5:[f20<1.21544278] yes=11,no=12,missing=12
			11:[f27<-0.91043824] yes=23,no=24,missing=24
				23:leaf=0.0428435132
				24:leaf=0.0642494112
			12:[f27<0.957917571] yes=25,no=26,missing=26
				25:[f0<0.196855888] yes=43,no=44,missing=44
					43:leaf=0.0202711113
					44:leaf=0.0847321302
				26:leaf=0.121952191
		6:[f20<2.66688609] yes=13,no=14,missing=14
			13:leaf=0.140270039
			14:[f27<-1.7073015] yes=27,no=28,missing=28
				27:leaf=0.142857954
				28:leaf=0.213950738
booster[10]:
0:[f20<0.808156729] yes=1,no=2,missing=2
	1:[f20<-0.424078345] yes=3,no=4,missing=4
		3:[f20<-0.757430375] yes=7,no=8,missing=8
			7:[f20<-0.977935553] yes=15,no=16,missing=16
				15:leaf=-0.0585163645
				16:[f27<1.04178917] yes=31,no=32,missing=32
					31:leaf=-0.0482792556
					32:leaf=-0.0358408354
			8:[f20<-0.541464925] yes=17,no=18,missing=18
				17:[f27<0.851078272] yes=33,no=34,missing=34
					33:leaf=-0.0366614684
					34:leaf=-0.0270814281
				18:[f27<0.497501224] yes=35,no=36,missing=36
					35:leaf=-0.0278320462
					36:leaf=-0.0196227934
		4:[f20<0.0318486243] yes=9,no=10,missing=10
			9:[f20<-0.217841104] yes=19,no=20,missing=20
				19:[f27<0.453540206] yes=37,no=38,missing=38
					37:leaf=-0.0190045349
					38:leaf=-0.0106689623
				20:[f27<-0.556539297] yes=39,no=40,missing=40
					39:leaf=-0.0129291741
					40:leaf=-0.00385212828
			10:[f20<0.34639284] yes=21,no=22,missing=22
				21:[f27<-0.813958883] yes=41,no=42,missing=42
					41:leaf=-0.00204232079
					42:leaf=0.01343692
				22:[f27<1.06498146] yes=43,no=44,missing=44
					43:leaf=0.0247935224
					44:leaf=0.0452293158
	2:[f20<2.36855531] yes=5,no=6,missing=6
		5:[f20<1.59159875] yes=11,no=12,missing=12
			11:[f27<0.302287281] yes=23,no=24,missing=24
				23:[f20<1.13242912] yes=45,no=46,missing=46
					45:leaf=0.0435252003
					46:leaf=0.0599921346
				24:[f20<1.13242912] yes=47,no=48,missing=48
					47:leaf=0.0605161302
					48:leaf=0.0865083113
			12:[f27<0.0635906756] yes=25,no=26,missing=26
				25:leaf=0.0904119164
				26:leaf=0.121652663
		6:[f20<3.33748126] yes=13,no=14,missing=14
			13:[f27<0.117891282] yes=27,no=28,missing=28
				27:leaf=0.1262943
				28:leaf=0.168591723
			14:[f27<-3.59526491] yes=29,no=30,missing=30
				29:leaf=0.0563929789
				30:leaf=0.204724059
booster[11]:
0:[f20<0.808156729] yes=1,no=2,missing=2
	1:[f20<-0.395542383] yes=3,no=4,missing=4
		3:[f20<-0.738622546] yes=7,no=8,missing=8
			7:[f20<-0.95329088] yes=15,no=16,missing=16
				15:leaf=-0.0511435829
				16:[f27<1.51124382] yes=29,no=30,missing=30
					29:leaf=-0.0419107005
					30:leaf=-0.0258406736
			8:[f20<-0.541464925] yes=17,no=18,missing=18
				17:[f27<-0.402590185] yes=31,no=32,missing=32
					31:leaf=-0.0361866131
					32:leaf=-0.0285140872
				18:[f27<1.38346863] yes=33,no=34,missing=34
					33:leaf=-0.0229909271
					34:leaf=-0.00902710762
		4:[f20<0.0318486243] yes=9,no=10,missing=10
			9:[f20<-0.213301301] yes=19,no=20,missing=20
				19:[f27<0.906355977] yes=35,no=36,missing=36
					35:leaf=-0.0157281514
					36:leaf=-0.00377013977
				20:[f27<-0.710727155] yes=37,no=38,missing=38
					37:leaf=-0.0132633699
					38:leaf=-0.0036887303
			10:[f6<1.10895193] yes=21,no=22,missing=22
				21:[f27<-1.13510156] yes=39,no=40,missing=40
					39:leaf=-0.00397243351
					40:leaf=0.0104836859
				22:[f27<1.06498146] yes=41,no=42,missing=42
					41:leaf=0.0213558637
					42:leaf=0.0399924889
	2:[f20<2.07411599] yes=5,no=6,missing=6
		5:[f20<1.33996344] yes=11,no=12,missing=12
			11:[f27<0.604251742] yes=23,no=24,missing=24
				23:[f27<-2.39755845] yes=43,no=44,missing=44
					43:leaf=0.0179917943
					44:leaf=0.045666039
				24:leaf=0.0619296394
			12:[f27<0.957917571] yes=25,no=26,missing=26
				25:[f27<-1.81643367] yes=45,no=46,missing=46
					45:leaf=0.0477662086
					46:leaf=0.0735694245
				26:leaf=0.104525857
		6:[f20<2.66688609] yes=13,no=14,missing=14
			13:leaf=0.114250124
			14:[f27<-1.7073015] yes=27,no=28,missing=28
				27:leaf=0.115588762
				28:leaf=0.174959153
booster[12]:
0:[f20<1.0221765] yes=1,no=2,missing=2
	1:[f20<-0.255456716] yes=3,no=4,missing=4
		3:[f20<-0.649771929] yes=7,no=8,missing=8
			7:[f20<-0.859251857] yes=15,no=16,missing=16
				15:[f20<-0.991555035] yes=29,no=30,missing=30
					29:leaf=-0.0482962355
					30:leaf=-0.0397145897
				16:[f27<0.573399305] yes=31,no=32,missing=32
					31:leaf=-0.0340363756
					32:leaf=-0.0266813766
			8:[f20<-0.424078345] yes=17,no=18,missing=18
				17:[f27<0.287003994] yes=33,no=34,missing=34
					33:leaf=-0.0254771095
					34:leaf=-0.0181067418
				18:[f27<-0.29444474] yes=35,no=36,missing=36
					35:leaf=-0.0195979029
					36:leaf=-0.0130803678
		4:[f20<0.249111116] yes=9,no=10,missing=10
			9:[f20<-0.056353461] yes=19,no=20,missing=20
				19:[f27<0.556168914] yes=37,no=38,missing=38
					37:leaf=-0.00886538532
					38:leaf=0.000484339718
				20:[f27<0.330584317] yes=39,no=40,missing=40
					39:leaf=-0.000411440153
					40:leaf=0.00911440793
			10:[f20<0.604513645] yes=21,no=22,missing=22
				21:[f27<-0.329551041] yes=41,no=42,missing=42
					41:leaf=0.00743754907
					42:leaf=0.0233463831
				22:[f27<-0.704431295] yes=43,no=44,missing=44
					43:leaf=0.0250955578
					44:leaf=0.0401282087
	2:[f20<2.5624702] yes=5,no=6,missing=6
		5:[f20<1.90419734] yes=11,no=12,missing=12
			11:[f27<1.3070966] yes=23,no=24,missing=24
				23:[f27<-1.89172685] yes=45,no=46,missing=46
					45:leaf=0.0344757475
					46:leaf=0.0574674681
				24:leaf=0.0842764154
			12:[f27<-1.40349698] yes=25,no=26,missing=26
				25:[f0<2.54995465] yes=47,no=48,missing=48
					47:leaf=0.0708530992
					48:leaf=0.0202584751
				26:leaf=0.103752516
		6:[f20<3.67537308] yes=13,no=14,missing=14
			13:[f27<-0.931850493] yes=27,no=28,missing=28
				27:leaf=0.0979525819
				28:leaf=0.144192025
			14:leaf=0.187247708
booster[13]:
0:[f20<0.894413173] yes=1,no=2,missing=2
	1:[f20<-0.309285909] yes=3,no=4,missing=4
		3:[f20<-0.677010775] yes=7,no=8,missing=8
			7:[f20<-0.922809243] yes=15,no=16,missing=16
				15:[f27<-0.0451908261] yes=29,no=30,missing=30
					29:leaf=-0.0443769991
					30:leaf=-0.0361848064
				16:[f27<-0.226688281] yes=31,no=32,missing=32
					31:leaf=-0.0351480395
					32:leaf=-0.0279728379
			8:[f27<-0.693201661] yes=17,no=18,missing=18
				17:[f27<-1.57819712] yes=33,no=34,missing=34
					33:leaf=-0.0324145108
					34:leaf=-0.0239651743
				18:[f20<-0.458451211] yes=35,no=36,missing=36
					35:leaf=-0.02027574
					36:leaf=-0.0142525984
		4:[f20<0.182959557] yes=9,no=10,missing=10
			9:[f20<-0.093969062] yes=19,no=20,missing=20
				19:[f27<-0.931850493] yes=37,no=38,missing=38
					37:leaf=-0.0188408252
					38:leaf=-0.00728169782
				20:[f27<1.23057842] yes=39,no=40,missing=40
					39:leaf=-0.000618240039
					40:leaf=0.0136500001
			10:[f20<0.50398922] yes=21,no=22,missing=22
				21:[f27<-0.0935054272] yes=41,no=42,missing=42
					41:leaf=0.00632284349
					42:leaf=0.0179517847
				22:[f27<0.591914356] yes=43,no=44,missing=44
					43:leaf=0.0230331831
					44:leaf=0.0388874002
	2:[f20<2.5624702] yes=5,no=6,missing=6
		5:[f20<1.71287668] yes=11,no=12,missing=12
			11:[f27<1.93219626] yes=23,no=24,missing=24
				23:[f27<-1.05853105] yes=45,no=46,missing=46
					45:leaf=0.0363158993
					46:leaf=0.052391123
				24:leaf=0.084646903
			12:[f27<0.158283174] yes=25,no=26,missing=26
				25:[f27<-2.95163178] yes=47,no=48,missing=48
					47:leaf=0.0282534938
					48:leaf=0.0750175416
				26:leaf=0.0976382121
		6:[f20<3.67537308] yes=13,no=14,missing=14
			13:[f27<0.321739912] yes=27,no=28,missing=28
				27:leaf=0.106642507
				28:leaf=0.143370852
			14:leaf=0.169563204
booster[14]:
0:[f20<1.13242912] yes=1,no=2,missing=2
	1:[f20<-0.056353461] yes=3,no=4,missing=4
		3:[f20<-0.541464925] yes=7,no=8,missing=8
			7:[f20<-0.791803241] yes=15,no=16,missing=16
				15:[f27<0.556168914] yes=29,no=30,missing=30
					29:leaf=-0.0356523991
					30:leaf=-0.0279150009
				16:[f27<0.906355977] yes=31,no=32,missing=32
					31:leaf=-0.0249139704
					32:leaf=-0.017587468
			8:[f20<-0.309285909] yes=17,no=18,missing=18
				17:[f27<-0.428885698] yes=33,no=34,missing=34
					33:leaf=-0.0196295232
					34:leaf=-0.0133086443
				18:[f27<-0.931850493] yes=35,no=36,missing=36
					35:leaf=-0.0166105032
					36:leaf=-0.00612469111
		4:[f20<0.425515294] yes=9,no=10,missing=10
			9:[f27<0.604251742] yes=19,no=20,missing=20
				19:[f20<0.182959557] yes=37,no=38,missing=38
					37:leaf=-6.4868349e-05
					38:leaf=0.00706723938
				20:[f20<0.182959557] yes=39,no=40,missing=40
					39:leaf=0.00833497848
					40:leaf=0.0180506464
			10:[f27<0.591914356] yes=21,no=22,missing=22
				21:[f20<0.682339013] yes=41,no=42,missing=42
					41:leaf=0.0143560413
					42:leaf=0.0278092753
				22:[f2<0.339151204] yes=43,no=44,missing=44
					43:leaf=0.013262256
					44:leaf=0.038285993
	2:[f20<2.5624702] yes=5,no=6,missing=6
		5:[f20<1.90419734] yes=11,no=12,missing=12
			11:[f27<1.3070966] yes=23,no=24,missing=24
				23:[f27<-1.61367321] yes=45,no=46,missing=46
					45:leaf=0.0324692912
					46:leaf=0.0502373539
				24:leaf=0.071738109
			12:[f27<0.444581598] yes=25,no=26,missing=26
				25:[f0<3.03881979] yes=47,no=48,missing=48
					47:leaf=0.0711453781
					48:leaf=0.0178328753
				26:leaf=0.0947745144
		6:[f20<3.57355165] yes=13,no=14,missing=14
			13:[f27<0.839194477] yes=27,no=28,missing=28
				27:leaf=0.0932397097
				28:leaf=0.130183876
			14:leaf=0.146665007
booster[15]:
0:[f20<1.13242912] yes=1,no=2,missing=2
	1:[f20<-0.11472249] yes=3,no=4,missing=4
		3:[f20<-0.541464925] yes=7,no=8,missing=8
			7:[f20<-0.757430375] yes=15,no=16,missing=16
				15:[f20<-0.977935553] yes=29,no=30,missing=30
					29:leaf=-0.0358687565
					30:leaf=-0.0278255846
				16:[f27<-0.886175036] yes=31,no=32,missing=32
					31:leaf=-0.0269898567
					32:leaf=-0.0194673911
			8:[f20<-0.348198593] yes=17,no=18,missing=18
				17:[f27<1.93219626] yes=33,no=34,missing=34
					33:leaf=-0.0142970607
					34:leaf=0.0033525601
				18:[f27<0.697129309] yes=35,no=36,missing=36
					35:leaf=-0.00877018552
					36:leaf=-0.000380740676
		4:[f20<0.399573505] yes=9,no=10,missing=10
			9:[f27<0.611613035] yes=19,no=20,missing=20
				19:[f20<-0.0187378656] yes=37,no=38,missing=38
					37:leaf=-0.00306327268
					38:leaf=0.00319093768
				20:[f23<-0.0164248124] yes=39,no=40,missing=40
					39:leaf=0.00368999923
					40:leaf=0.0140617928
			10:[f27<0.591914356] yes=21,no=22,missing=22
				21:[f20<0.682339013] yes=41,no=42,missing=42
					41:leaf=0.012598847
					42:leaf=0.0250945725
				22:[f22<-0.0289518535] yes=43,no=44,missing=44
					43:leaf=0.0155264055
					44:leaf=0.0347274356
	2:[f20<2.66688609] yes=5,no=6,missing=6
		5:[f20<1.96516061] yes=11,no=12,missing=12
			11:[f27<1.11456084] yes=23,no=24,missing=24
				23:[f20<1.47486067] yes=45,no=46,missing=46
					45:leaf=0.0352605246
					46:leaf=0.0484030955
				24:leaf=0.0652617291
			12:[f27<0.61627394] yes=25,no=26,missing=26
				25:[f27<-2.39755845] yes=47,no=48,missing=48
					47:leaf=0.0348683558
					48:leaf=0.0683945343
				26:leaf=0.0896069333
		6:[f27<-1.7073015] yes=13,no=14,missing=14
			13:leaf=0.0739045069
			14:[f20<3.33748126] yes=27,no=28,missing=28
				27:leaf=0.0987523645
				28:[f8<0.610405028] yes=49,no=50,missing=50
					49:leaf=0.0317978635
					50:leaf=0.133370996
booster[16]:
0:[f20<1.13242912] yes=1,no=2,missing=2
	1:[f20<-0.11472249] yes=3,no=4,missing=4
		3:[f20<-0.566109657] yes=7,no=8,missing=8
			7:[f20<-0.791803241] yes=15,no=16,missing=16
				15:[f20<-0.998688996] yes=29,no=30,missing=30
					29:leaf=-0.0334851071
					30:leaf=-0.0256916564
				16:[f27<0.0674903914] yes=31,no=32,missing=32
					31:leaf=-0.0215482693
					32:leaf=-0.0169810634
			8:[f20<-0.329390794] yes=17,no=18,missing=18
				17:[f27<-0.664282024] yes=33,no=34,missing=34
					33:leaf=-0.0186433308
					34:leaf=-0.0114049567
				18:[f27<-1.07353616] yes=35,no=36,missing=36
					35:leaf=-0.0165805258
					36:leaf=-0.00598413637
		4:[f20<0.425515294] yes=9,no=10,missing=10
			9:[f20<0.182959557] yes=19,no=20,missing=20
				19:[f27<-0.177374467] yes=37,no=38,missing=38
					37:leaf=-0.003423766
					38:leaf=0.00279946043
				20:[f27<-2.13103223] yes=39,no=40,missing=40
					39:leaf=-0.00778138638
					40:leaf=0.0101363948
			10:[f27<-1.47820401] yes=21,no=22,missing=22
				21:[f20<0.540956259] yes=41,no=42,missing=42
					41:leaf=-0.00634346483
					42:leaf=0.0123543022
				22:[f27<1.3070966] yes=43,no=44,missing=44
					43:leaf=0.021836536
					44:leaf=0.0351028927
	2:[f20<2.66688609] yes=5,no=6,missing=6
		5:[f20<1.96516061] yes=11,no=12,missing=12
			11:[f27<-0.0258949976] yes=23,no=24,missing=24
				23:[f0<0.196855888] yes=45,no=46,missing=46
					45:leaf=0.00694353599
					46:leaf=0.0352362245
				24:[f27<1.93219626] yes=47,no=48,missing=48
					47:leaf=0.0467413627
					48:leaf=0.0670688972
			12:[f27<0.61627394] yes=25,no=26,missing=26
				25:[f0<3.03881979] yes=49,no=50,missing=50
					49:leaf=0.0605374686
					50:leaf=0.0151978256
				26:leaf=0.0810046792
		6:[f20<3.67537308] yes=13,no=14,missing=14
			13:[f27<-1.11785066] yes=27,no=28,missing=28
				27:leaf=0.0624288619
				28:leaf=0.097778745
			14:leaf=0.127761781
booster[17]:
0:[f20<0.808156729] yes=1,no=2,missing=2
	1:[f20<-0.411107451] yes=3,no=4,missing=4
		3:[f20<-0.738622546] yes=7,no=8,missing=8
			7:[f20<-0.977935553] yes=15,no=16,missing=16
				15:[f27<0.522746563] yes=31,no=32,missing=32
					31:leaf=-0.0315779969
					32:leaf=-0.0232110154
				16:[f27<1.11456084] yes=33,no=34,missing=34
					33:leaf=-0.0232031103
					34:leaf=-0.0142059494
			8:[f27<-0.313025773] yes=17,no=18,missing=18
				17:[f27<-1.0929513] yes=35,no=36,missing=36
					35:leaf=-0.0224018097
					36:leaf=-0.0165565815
				18:[f27<2.17359304] yes=37,no=38,missing=38
					37:leaf=-0.0128866602
					38:leaf=0.00263264985
		4:[f20<-0.0187378656] yes=9,no=10,missing=10
			9:[f20<-0.247025624] yes=19,no=20,missing=20
				19:[f27<0.591914356] yes=39,no=40,missing=40
					39:leaf=-0.00963971578
					40:leaf=-0.00311117782
				20:[f27<-0.410692424] yes=41,no=42,missing=42
					41:leaf=-0.00794828124
					42:leaf=-0.00196465175
			10:[f6<1.08421385] yes=21,no=22,missing=22
				21:[f27<-2.95163178] yes=43,no=44,missing=44
					43:leaf=-0.0166925751
					44:leaf=0.0040616137
				22:[f27<1.70970833] yes=45,no=46,missing=46
					45:leaf=0.0114669725
					46:leaf=0.0272566956
	2:[f20<2.42497873] yes=5,no=6,missing=6
		5:[f20<1.47486067] yes=11,no=12,missing=12
			11:[f27<1.47137344] yes=23,no=24,missing=24
				23:[f27<-2.39755845] yes=47,no=48,missing=48
					47:leaf=0.00767617673
					48:leaf=0.0267931316
				24:leaf=0.0439535081
			12:[f27<1.33223617] yes=25,no=26,missing=26
				25:[f20<1.90419734] yes=49,no=50,missing=50
					49:leaf=0.0390808098
					50:leaf=0.0517958887
				26:[f14<0.173960716] yes=51,no=52,missing=52
					51:leaf=0.0188417919
					52:leaf=0.0678398907
		6:[f20<3.33748126] yes=13,no=14,missing=14
			13:[f27<1.04178917] yes=27,no=28,missing=28
				27:[f27<-2.57718325] yes=53,no=54,missing=54
					53:leaf=0.0248820148
					54:leaf=0.0639240295
				28:leaf=0.0957264379
			14:[f27<-0.402590185] yes=29,no=30,missing=30
				29:leaf=0.0779039636
				30:leaf=0.116544776
booster[18]:
0:[f20<0.746544957] yes=1,no=2,missing=2
	1:[f20<-0.435752153] yes=3,no=4,missing=4
		3:[f20<-0.757430375] yes=7,no=8,missing=8
			7:[f27<0.0635906756] yes=15,no=16,missing=16
				15:[f20<-0.943562686] yes=31,no=32,missing=32
					31:leaf=-0.0286618061
					32:leaf=-0.0221718773
				16:[f20<-1.02463078] yes=33,no=34,missing=34
					33:leaf=-0.0252971705
					34:leaf=-0.0176304057
			8:[f27<0.340662658] yes=17,no=18,missing=18
				17:[f27<-0.976522446] yes=35,no=36,missing=36
					35:leaf=-0.0205916781
					36:leaf=-0.0143124685
				18:[f27<2.45998883] yes=37,no=38,missing=38
					37:leaf=-0.0106441686
					38:leaf=0.00388277764
		4:[f20<-0.0187378656] yes=9,no=10,missing=10
			9:[f20<-0.247025624] yes=19,no=20,missing=20
				19:[f27<0.165300682] yes=39,no=40,missing=40
					39:leaf=-0.00970049854
					40:leaf=-0.00539160613
				20:[f27<0.991634309] yes=41,no=42,missing=42
					41:leaf=-0.00387470354
					42:leaf=0.00635511195
			10:[f27<1.06498146] yes=21,no=22,missing=22
				21:[f27<-2.57718325] yes=43,no=44,missing=44
					43:leaf=-0.0129920514
					44:leaf=0.00584216742
				22:[f27<2.17359304] yes=45,no=46,missing=46
					45:leaf=0.014177884
					46:leaf=0.0258260313
	2:[f20<2.07411599] yes=5,no=6,missing=6
		5:[f20<1.33996344] yes=11,no=12,missing=12
			11:[f27<-0.321845025] yes=23,no=24,missing=24
				23:[f27<-2.39755845] yes=47,no=48,missing=48
					47:leaf=0.0057213367
					48:leaf=0.0192813408
				24:[f7<1.73742247] yes=49,no=50,missing=50
					49:leaf=0.0288852043
					50:leaf=0.0135745052
			12:[f27<0.387760729] yes=25,no=26,missing=26
				25:[f27<-1.81643367] yes=51,no=52,missing=52
					51:leaf=0.0215475
					52:leaf=0.0348288231
				26:leaf=0.0497740395
		6:[f20<3.10789633] yes=13,no=14,missing=14
			13:[f27<0.839194477] yes=27,no=28,missing=28
				27:leaf=0.0522650965
				28:leaf=0.074197419
			14:[f27<-0.538214564] yes=29,no=30,missing=30
				29:[f27<-3.59526491] yes=53,no=54,missing=54
					53:leaf=0.0276350975
					54:leaf=0.0673170686
				30:[f9<0.825322092] yes=55,no=56,missing=56
					55:leaf=0.0281345844
					56:leaf=0.100864343
booster[19]:
0:[f20<1.13242912] yes=1,no=2,missing=2
	1:[f20<-0.149095371] yes=3,no=4,missing=4
		3:[f20<-0.581026196] yes=7,no=8,missing=8
			7:[f20<-0.905298531] yes=15,no=16,missing=16
				15:[f27<-0.0451908261] yes=27,no=28,missing=28
					27:leaf=-0.0248052385
					28:leaf=-0.0188321844
				16:[f27<-0.359826356] yes=29,no=30,missing=30
					29:leaf=-0.0184778627
					30:leaf=-0.0138287572
			8:[f27<-0.49754113] yes=17,no=18,missing=18
				17:[f27<-1.57819712] yes=31,no=32,missing=32
					31:leaf=-0.0197763573
					32:leaf=-0.0105935615
				18:[f20<-0.302800477] yes=33,no=34,missing=34
					33:leaf=-0.00792118628
					34:leaf=-0.00367165613
		4:[f20<0.282186896] yes=9,no=10,missing=10
			9:[f27<-1.29619074] yes=19,no=20,missing=20
				19:[f27<-2.39755845] yes=35,no=36,missing=36
					35:leaf=-0.0162214935
					36:leaf=-0.00562052894
				20:[f27<0.7557953] yes=37,no=38,missing=38
					37:leaf=0.000116750009
					38:leaf=0.00737352669
			10:[f20<0.682339013] yes=21,no=22,missing=22
				21:[f27<-1.34669185] yes=39,no=40,missing=40
					39:leaf=-0.001607151
					40:leaf=0.0123105254
				22:[f27<-1.75816727] yes=41,no=42,missing=42
					41:leaf=0.00848598499
					42:leaf=0.0212218668
	2:[f20<2.96716213] yes=5,no=6,missing=6
		5:[f20<1.96516061] yes=11,no=12,missing=12
			11:[f27<1.82846272] yes=23,no=24,missing=24
				23:[f27<-1.61367321] yes=43,no=44,missing=44
					43:leaf=0.0185071137
					44:leaf=0.0318595357
				24:leaf=0.0500423498
			12:[f27<1.04178917] yes=25,no=26,missing=26
				25:[f27<-2.05228353] yes=45,no=46,missing=46
					45:leaf=0.0297049526
					46:leaf=0.0478823297
				26:leaf=0.0666621253
		6:[f27<-0.538214564] yes=13,no=14,missing=14
			13:leaf=0.0584845431
			14:leaf=0.0873328745
booster[20]:
0:[f20<1.21544278] yes=1,no=2,missing=2
	1:[f20<-0.041436933] yes=3,no=4,missing=4
		3:[f20<-0.536925137] yes=7,no=8,missing=8
			7:[f20<-0.791803241] yes=15,no=16,missing=16
				15:[f27<0.596665978] yes=31,no=32,missing=32
					31:leaf=-0.0195720829
					32:leaf=-0.0136074722
				16:[f27<1.08937669] yes=33,no=34,missing=34
					33:leaf=-0.0134975975
					34:leaf=-0.00811624434
			8:[f20<-0.263239235] yes=17,no=18,missing=18
				17:[f27<1.5575068] yes=35,no=36,missing=36
					35:leaf=-0.00777834048
					36:leaf=0.00457299314
				18:[f27<-1.44438386] yes=37,no=38,missing=38
					37:leaf=-0.0135908993
					38:leaf=-0.00260702195
		4:[f20<0.50398922] yes=9,no=10,missing=10
			9:[f27<0.097104013] yes=19,no=20,missing=20
				19:[f27<-2.95163178] yes=39,no=40,missing=40
					39:leaf=-0.012646215
					40:leaf=0.00122153759
				20:[f20<0.249111116] yes=41,no=42,missing=42
					41:leaf=0.00465711765
					42:leaf=0.0109978383
			10:[f27<1.3070966] yes=21,no=22,missing=22
				21:[f20<0.682339013] yes=43,no=44,missing=44
					43:leaf=0.00827329326
					44:leaf=0.0164379161
				22:leaf=0.0270858258
	2:[f20<2.96716213] yes=5,no=6,missing=6
		5:[f20<1.96516061] yes=11,no=12,missing=12
			11:[f27<1.93219626] yes=23,no=24,missing=24
				23:[f27<-1.75816727] yes=45,no=46,missing=46
					45:leaf=0.0167879388
					46:leaf=0.0294842701
				24:leaf=0.0482428931
			12:[f27<1.04178917] yes=25,no=26,missing=26
				25:[f27<-2.05228353] yes=47,no=48,missing=48
					47:leaf=0.0270314999
					48:leaf=0.0431766324
				26:leaf=0.0602989085
		6:[f27<-0.784166574] yes=13,no=14,missing=14
			13:[f21<2.49779868] yes=27,no=28,missing=28
				27:leaf=0.0256206039
				28:leaf=0.0533299334
			14:[f20<3.67537308] yes=29,no=30,missing=30
				29:[f27<0.321739912] yes=49,no=50,missing=50
					49:leaf=0.0539129749
					50:leaf=0.0798370093
				30:leaf=0.0943483487
booster[21]:
0:[f20<1.21544278] yes=1,no=2,missing=2
	1:[f20<-0.041436933] yes=3,no=4,missing=4
		3:[f20<-0.47725901] yes=7,no=8,missing=8
			7:[f20<-0.72240895] yes=15,no=16,missing=16
				15:[f20<-1.02463078] yes=31,no=32,missing=32
					31:leaf=-0.0225828346
					32:leaf=-0.014915009
				16:[f27<1.25535488] yes=33,no=34,missing=34
					33:leaf=-0.0109988181
					34:leaf=-0.00439171633
			8:[f27<0.728348732] yes=17,no=18,missing=18
				17:[f27<-0.91043824] yes=35,no=36,missing=36
					35:leaf=-0.0111522479
					36:leaf=-0.00495179649
				18:[f27<2.68354964] yes=37,no=38,missing=38
					37:leaf=3.25066358e-05
					38:leaf=0.0156053696
		4:[f20<0.50398922] yes=9,no=10,missing=10
			9:[f27<-0.18733874] yes=19,no=20,missing=20
				19:[f27<-2.95163178] yes=39,no=40,missing=40
					39:leaf=-0.0115923649
					40:leaf=0.00046277442
				20:[f20<0.249111116] yes=41,no=42,missing=42
					41:leaf=0.00366755016
					42:leaf=0.00945312064
			10:[f27<1.59655452] yes=21,no=22,missing=22
				21:[f27<-2.13103223] yes=43,no=44,missing=44
					43:leaf=-0.00108815031
					44:leaf=0.0138672357
				22:leaf=0.0270067956
	2:[f20<2.96716213] yes=5,no=6,missing=6
		5:[f20<1.90419734] yes=11,no=12,missing=12
			11:[f27<1.82846272] yes=23,no=24,missing=24
				23:[f27<-1.75816727] yes=45,no=46,missing=46
					45:leaf=0.0144852772
					46:leaf=0.0255767349
				24:leaf=0.0413342156
			12:[f27<1.04178917] yes=25,no=26,missing=26
				25:[f27<-2.57718325] yes=47,no=48,missing=48
					47:leaf=0.0178785529
					48:leaf=0.0377314799
				26:leaf=0.0538791195
		6:[f20<3.67537308] yes=13,no=14,missing=14
			13:[f27<0.321739912] yes=27,no=28,missing=28
				27:[f27<-3.59526491] yes=49,no=50,missing=50
					49:leaf=0.0192621071
					50:leaf=0.0472357348
				28:leaf=0.0723229572
			14:[f1<1.55937421] yes=29,no=30,missing=30
				29:leaf=0.0235636234
				30:leaf=0.0837565884
booster[22]:
0:[f20<0.746544957] yes=1,no=2,missing=2
	1:[f20<-0.38581419] yes=3,no=4,missing=4
		3:[f23<-0.725538373] yes=7,no=8,missing=8
			7:[f27<-0.693201661] yes=15,no=16,missing=16
				15:[f2<-0.16719605] yes=29,no=30,missing=30
					29:leaf=-0.0183160957
					30:leaf=-0.00524871377
				16:[f20<-1.02463078] yes=31,no=32,missing=32
					31:leaf=-0.0192436986
					32:leaf=-0.0120371729
			8:[f27<-0.210510969] yes=17,no=18,missing=18
				17:[f27<-0.987581253] yes=33,no=34,missing=34
					33:leaf=-0.0138786901
					34:leaf=-0.00950329471
				18:[f27<1.64113653] yes=35,no=36,missing=36
					35:leaf=-0.00720847771
					36:leaf=0.000335255812
		4:[f20<0.182959557] yes=9,no=10,missing=10
			9:[f27<1.25535488] yes=19,no=20,missing=20
				19:[f27<-1.7073015] yes=37,no=38,missing=38
					37:leaf=-0.0162331555
					38:leaf=-0.0030944855
				20:[f27<1.93219626] yes=39,no=40,missing=40
					39:leaf=0.00496088481
					40:leaf=0.0129813971
			10:[f27<1.3070966] yes=21,no=22,missing=22
				21:[f27<-1.94836438] yes=41,no=42,missing=42
					41:leaf=-0.00594754936
					42:leaf=0.00623928523
				22:[f27<2.17359304] yes=43,no=44,missing=44
					43:leaf=0.0118276644
					44:leaf=0.0218077153
	2:[f20<2.42497873] yes=5,no=6,missing=6
		5:[f20<1.47486067] yes=11,no=12,missing=12
			11:[f27<1.93219626] yes=23,no=24,missing=24
				23:[f27<-0.91043824] yes=45,no=46,missing=46
					45:leaf=0.0103015462
					46:leaf=0.0174533408
				24:leaf=0.0330665968
			12:[f27<0.47878924] yes=25,no=26,missing=26
				25:[f27<-1.7073015] yes=47,no=48,missing=48
					47:leaf=0.018584786
					48:leaf=0.0278928522
				26:[f14<0.173960716] yes=49,no=50,missing=50
					49:leaf=0.011064983
					50:leaf=0.0380468294
		6:[f20<3.67537308] yes=13,no=14,missing=14
			13:[f27<1.82846272] yes=27,no=28,missing=28
				27:[f27<-1.0929513] yes=51,no=52,missing=52
					51:leaf=0.0300103333
					52:leaf=0.0463300683
				28:leaf=0.0754561648
			14:leaf=0.0741456971
booster[23]:
0:[f20<1.08249116] yes=1,no=2,missing=2
	1:[f20<-0.200330406] yes=3,no=4,missing=4
		3:[f20<-0.632909775] yes=7,no=8,missing=8
			7:[f20<-0.948102534] yes=15,no=16,missing=16
				15:[f27<1.42206645] yes=31,no=32,missing=32
					31:leaf=-0.0164327472
					32:leaf=-0.00788408332
				16:[f27<-0.750606] yes=33,no=34,missing=34
					33:leaf=-0.0145975938
					34:leaf=-0.00986018032
			8:[f27<-0.596727848] yes=17,no=18,missing=18
				17:[f27<-1.7073015] yes=35,no=36,missing=36
					35:leaf=-0.0161616392
					36:leaf=-0.00833523925
				18:[f27<1.51124382] yes=37,no=38,missing=38
					37:leaf=-0.00500366976
					38:leaf=0.00370539539
		4:[f20<0.249111116] yes=9,no=10,missing=10
			9:[f27<-0.177374467] yes=19,no=20,missing=20
				19:[f27<-1.47820401] yes=39,no=40,missing=40
					39:leaf=-0.0100895576
					40:leaf=-0.0020919526
				20:[f27<1.3070966] yes=41,no=42,missing=42
					41:leaf=0.00107518991
					42:leaf=0.00770479441
			10:[f27<0.957917571] yes=21,no=22,missing=22
				21:[f27<-1.94836438] yes=43,no=44,missing=44
					43:leaf=-0.00266119046
					44:leaf=0.00773971248
				22:[f27<1.82846272] yes=45,no=46,missing=46
					45:leaf=0.0132736107
					46:leaf=0.0211589057
	2:[f20<2.49761581] yes=5,no=6,missing=6
		5:[f27<1.82846272] yes=11,no=12,missing=12
			11:[f20<1.80432141] yes=23,no=24,missing=24
				23:[f27<-1.05853105] yes=47,no=48,missing=48
					47:leaf=0.012047749
					48:leaf=0.0203090757
				24:[f27<-1.81643367] yes=49,no=50,missing=50
					49:leaf=0.0182618238
					50:leaf=0.0295247864
			12:[f20<1.33996344] yes=25,no=26,missing=26
				25:leaf=0.0179826152
				26:leaf=0.0443054438
		6:[f20<3.57355165] yes=13,no=14,missing=14
			13:[f27<1.35012579] yes=27,no=28,missing=28
				27:[f27<-2.05228353] yes=51,no=52,missing=52
					51:leaf=0.0210348126
					52:leaf=0.0383528918
				28:leaf=0.062957868
			14:[f27<-2.13103223] yes=29,no=30,missing=30
				29:leaf=0.0247046314
				30:leaf=0.0652170107
booster[24]:
0:[f20<0.746544957] yes=1,no=2,missing=2
	1:[f20<-0.372843295] yes=3,no=4,missing=4
		3:[f20<-0.72240895] yes=7,no=8,missing=8
			7:[f27<1.42206645] yes=15,no=16,missing=16
				15:[f20<-0.998688996] yes=31,no=32,missing=32
					31:leaf=-0.0170606729
					32:leaf=-0.0112833744
				16:[f27<2.17359304] yes=33,no=34,missing=34
					33:leaf=-0.00707311509
					34:leaf=-0.00234699761
			8:[f27<0.00202989951] yes=17,no=18,missing=18
				17:[f27<-1.38364732] yes=35,no=36,missing=36
					35:leaf=-0.0128575061
					36:leaf=-0.0076186317
				18:[f27<2.10805631] yes=37,no=38,missing=38
					37:leaf=-0.00533590605
					38:leaf=0.00240444089
		4:[f20<-0.0103067849] yes=9,no=10,missing=10
			9:[f27<0.460348755] yes=19,no=20,missing=20
				19:[f27<-2.39755845] yes=39,no=40,missing=40
					39:leaf=-0.0173553303
					40:leaf=-0.00324259209
				20:[f27<1.51124382] yes=41,no=42,missing=42
					41:leaf=-0.000192120555
					42:leaf=0.0083737867
			10:[f27<-1.05853105] yes=21,no=22,missing=22
				21:[f27<-2.95163178] yes=43,no=44,missing=44
					43:leaf=-0.0102983778
					44:leaf=-0.000820806541
				22:[f27<2.17359304] yes=45,no=46,missing=46
					45:leaf=0.00449846312
					46:leaf=0.0164325722
	2:[f20<2.42497873] yes=5,no=6,missing=6
		5:[f20<1.47486067] yes=11,no=12,missing=12
			11:[f27<0.806306541] yes=23,no=24,missing=24
				23:[f27<-2.39755845] yes=47,no=48,missing=48
					47:leaf=0.00246209162
					48:leaf=0.0116126882
				24:[f27<1.93219626] yes=49,no=50,missing=50
					49:leaf=0.0165303256
					50:leaf=0.027533276
			12:[f27<1.33223617] yes=25,no=26,missing=26
				25:[f27<-1.7073015] yes=51,no=52,missing=52
					51:leaf=0.0153852468
					52:leaf=0.0236302502
				26:[f14<0.173960716] yes=53,no=54,missing=54
					53:leaf=0.00949628372
					54:leaf=0.0345580168
		6:[f20<3.47626996] yes=13,no=14,missing=14
			13:[f27<0.626034141] yes=27,no=28,missing=28
				27:[f21<1.71269321] yes=55,no=56,missing=56
					55:leaf=0.0066762208
					56:leaf=0.0287721343
				28:[f27<2.10805631] yes=57,no=58,missing=58
					57:leaf=0.0398329124
					58:leaf=0.0622439459
			14:[f27<-0.329551041] yes=29,no=30,missing=30
				29:leaf=0.0412075445
				30:leaf=0.064824827
booster[25]:
0:[f20<0.746544957] yes=1,no=2,missing=2
	1:[f20<-0.424078345] yes=3,no=4,missing=4
		3:[f23<-0.729636729] yes=7,no=8,missing=8
			7:[f27<-0.527692795] yes=15,no=16,missing=16
				15:[f20<-0.905298531] yes=31,no=32,missing=32
					31:leaf=-0.0150993541
					32:leaf=-0.0111959158
				16:[f20<-1.03760171] yes=33,no=34,missing=34
					33:leaf=-0.014988631
					34:leaf=-0.00851625856
			8:[f27<0.714392483] yes=17,no=18,missing=18
				17:[f27<-0.813958883] yes=35,no=36,missing=36
					35:leaf=-0.0100959549
					36:leaf=-0.00671156961
				18:[f27<2.45998883] yes=37,no=38,missing=38
					37:leaf=-0.00369708799
					38:leaf=0.00319332117
		4:[f23<0.0179457236] yes=9,no=10,missing=10
			9:[f27<0.273728579] yes=19,no=20,missing=20
				19:[f27<-2.13103223] yes=39,no=40,missing=40
					39:leaf=-0.0160781872
					40:leaf=-0.00345291058
				20:[f27<1.25535488] yes=41,no=42,missing=42
					41:leaf=-0.000860464876
					42:leaf=0.00453732023
			10:[f27<-1.13510156] yes=21,no=22,missing=22
				21:[f22<0.602830529] yes=43,no=44,missing=44
					43:leaf=-0.000237557615
					44:leaf=-0.00648843125
				22:[f27<1.70970833] yes=45,no=46,missing=46
					45:leaf=0.00436564302
					46:leaf=0.0135479067
	2:[f20<2.49761581] yes=5,no=6,missing=6
		5:[f20<1.59159875] yes=11,no=12,missing=12
			11:[f27<0.302287281] yes=23,no=24,missing=24
				23:[f27<-2.39755845] yes=47,no=48,missing=48
					47:leaf=0.00249547954
					48:leaf=0.010679692
				24:[f27<2.25384378] yes=49,no=50,missing=50
					49:leaf=0.0160840023
					50:leaf=0.0278190132
			12:[f27<1.77930331] yes=25,no=26,missing=26
				25:[f23<1.46029735] yes=51,no=52,missing=52
					51:leaf=0.00901087746
					52:leaf=0.0222484972
				26:leaf=0.0387309529
		6:[f20<3.67537308] yes=13,no=14,missing=14
			13:[f27<1.82846272] yes=27,no=28,missing=28
				27:[f27<-1.11785066] yes=53,no=54,missing=54
					53:leaf=0.0226768237
					54:leaf=0.0344876312
				28:leaf=0.0564311743
			14:[f27<-1.52748752] yes=29,no=30,missing=30
				29:leaf=0.0271556377
				30:[f0<2.0079639] yes=55,no=56,missing=56
					55:leaf=0.0141383652
					56:leaf=0.0620590411
booster[26]:
0:[f20<1.21544278] yes=1,no=2,missing=2
	1:[f20<-0.200330406] yes=3,no=4,missing=4
		3:[f20<-0.663391352] yes=7,no=8,missing=8
			7:[f27<-0.693201661] yes=15,no=16,missing=16
				15:[f20<-0.943562686] yes=31,no=32,missing=32
					31:leaf=-0.0147452774
					32:leaf=-0.0110111786
				16:[f20<-1.0473299] yes=33,no=34,missing=34
					33:leaf=-0.0150771365
					34:leaf=-0.00774973864
			8:[f27<-0.391922444] yes=17,no=18,missing=18
				17:[f27<-1.7073015] yes=35,no=36,missing=36
					35:leaf=-0.0123178698
					36:leaf=-0.00603224011
				18:[f27<2.25384378] yes=37,no=38,missing=38
					37:leaf=-0.00349607738
					38:leaf=0.00779885938
		4:[f20<0.425515294] yes=9,no=10,missing=10
			9:[f27<0.522746563] yes=19,no=20,missing=20
				19:[f27<-0.719367146] yes=39,no=40,missing=40
					39:leaf=-0.00338635966
					40:leaf=0.000231562459
				20:[f27<2.17359304] yes=41,no=42,missing=42
					41:leaf=0.00318432762
					42:leaf=0.0103640109
			10:[f27<-1.34669185] yes=21,no=22,missing=22
				21:[f20<0.682339013] yes=43,no=44,missing=44
					43:leaf=-0.00181402452
					44:leaf=0.005098416
				22:[f27<1.3070966] yes=45,no=46,missing=46
					45:leaf=0.00876500271
					46:leaf=0.0150576904
	2:[f20<3.1999898] yes=5,no=6,missing=6
		5:[f27<1.11456084] yes=11,no=12,missing=12
			11:[f20<2.07411599] yes=23,no=24,missing=24
				23:[f20<1.47486067] yes=47,no=48,missing=48
					47:leaf=0.0105794184
					48:leaf=0.0157229211
				24:[f27<-1.07353616] yes=49,no=50,missing=50
					49:leaf=0.0183263496
					50:leaf=0.0245605092
			12:[f20<1.80432141] yes=25,no=26,missing=26
				25:[f27<2.17359304] yes=51,no=52,missing=52
					51:leaf=0.0150487171
					52:leaf=0.0283004344
				26:[f4<3.08794904] yes=53,no=54,missing=54
					53:leaf=0.0359923504
					54:leaf=0.0139250923
		6:[f27<-0.329551041] yes=13,no=14,missing=14
			13:[f20<3.47626996] yes=27,no=28,missing=28
				27:leaf=0.0187202599
				28:leaf=0.0341843143
			14:[f6<1.79808497] yes=29,no=30,missing=30
				29:[f6<0.490499139] yes=55,no=56,missing=56
					55:leaf=0.0125700952
					56:leaf=0.0530466624
				30:leaf=0.00983667374
booster[27]:
0:[f20<0.746544957] yes=1,no=2,missing=2
	1:[f20<-0.31252864] yes=3,no=4,missing=4
		3:[f20<-0.689981699] yes=7,no=8,missing=8
			7:[f27<1.42206645] yes=15,no=16,missing=16
				15:[f20<-0.998688996] yes=31,no=32,missing=32
					31:leaf=-0.0129490439
					32:leaf=-0.00818164833
				16:[f0<-1.9464227] yes=33,no=34,missing=34
					33:leaf=0.00422065286
					34:leaf=-0.00352068502
			8:[f27<-0.0870236307] yes=17,no=18,missing=18
				17:[f27<-1.11785066] yes=35,no=36,missing=36
					35:leaf=-0.00913656782
					36:leaf=-0.00526523683
				18:[f27<2.10805631] yes=37,no=38,missing=38
					37:leaf=-0.00357218808
					38:leaf=0.00373417023
		4:[f20<0.249111116] yes=9,no=10,missing=10
			9:[f27<-0.307167441] yes=19,no=20,missing=20
				19:[f27<-2.57718325] yes=39,no=40,missing=40
					39:leaf=-0.013475189
					40:leaf=-0.002841298
				20:[f27<1.04178917] yes=41,no=42,missing=42
					41:leaf=-0.000380186306
					42:leaf=0.00420364086
			10:[f27<-0.823629975] yes=21,no=22,missing=22
				21:[f27<-2.95163178] yes=43,no=44,missing=44
					43:leaf=-0.00659311423
					44:leaf=0.00115124253
				22:[f27<2.45998883] yes=45,no=46,missing=46
					45:leaf=0.00544589758
					46:leaf=0.0151931336
	2:[f20<2.49761581] yes=5,no=6,missing=6
		5:[f20<1.47486067] yes=11,no=12,missing=12
			11:[f27<1.93219626] yes=23,no=24,missing=24
				23:[f27<-0.91043824] yes=47,no=48,missing=48
					47:leaf=0.0058612437
					48:leaf=0.0106207868
				24:leaf=0.0213159919
			12:[f27<1.77930331] yes=25,no=26,missing=26
				25:[f27<-1.44438386] yes=49,no=50,missing=50
					49:leaf=0.0113557577
					50:leaf=0.0184664857
				26:[f5<2.32910967] yes=51,no=52,missing=52
					51:leaf=0.0333744735
					52:leaf=0.011826071
		6:[f20<3.67537308] yes=13,no=14,missing=14
			13:[f27<1.35012579] yes=27,no=28,missing=28
				27:[f27<-2.57718325] yes=53,no=54,missing=54
					53:leaf=0.00957871694
					54:leaf=0.0261873249
				28:leaf=0.0439931192
			14:[f27<-1.52748752] yes=29,no=30,missing=30
				29:leaf=0.0225551128
				30:[f0<2.0079639] yes=55,no=56,missing=56
					55:leaf=0.0117222313
					56:leaf=0.0516401194
booster[28]:
0:[f20<1.21544278] yes=1,no=2,missing=2
	1:[f20<-0.149095371] yes=3,no=4,missing=4
		3:[f20<-0.472719193] yes=7,no=8,missing=8
			7:[f27<-0.527692795] yes=15,no=16,missing=16
				15:[f20<-0.866385877] yes=31,no=32,missing=32
					31:leaf=-0.0110684149
					32:leaf=-0.00745585561
				16:[f20<-1.02463078] yes=33,no=34,missing=34
					33:leaf=-0.0107463878
					34:leaf=-0.00539383292
			8:[f27<-0.117273934] yes=17,no=18,missing=18
				17:[f27<-1.21194291] yes=35,no=36,missing=36
					35:leaf=-0.00749326264
					36:leaf=-0.00364158745
				18:[f27<1.14009655] yes=37,no=38,missing=38
					37:leaf=-0.00195387774
					38:leaf=0.00274544675
		4:[f20<0.425515294] yes=9,no=10,missing=10
			9:[f27<-0.527692795] yes=19,no=20,missing=20
				19:[f27<-2.39755845] yes=39,no=40,missing=40
					39:leaf=-0.00747898081
					40:leaf=-0.00112866249
				20:[f27<2.17359304] yes=41,no=42,missing=42
					41:leaf=0.00162833638
					42:leaf=0.00881460588
			10:[f27<-1.34669185] yes=21,no=22,missing=22
				21:[f20<0.682339013] yes=43,no=44,missing=44
					43:leaf=-0.00159948121
					44:leaf=0.00410691928
				22:[f27<1.82846272] yes=45,no=46,missing=46
					45:leaf=0.0075352774
					46:leaf=0.0152162658
	2:[f20<3.1999898] yes=5,no=6,missing=6
		5:[f27<1.93219626] yes=11,no=12,missing=12
			11:[f20<1.90419734] yes=23,no=24,missing=24
				23:[f27<-1.07353616] yes=47,no=48,missing=48
					47:leaf=0.00771170948
					48:leaf=0.0128577994
				24:[f27<0.374944121] yes=49,no=50,missing=50
					49:leaf=0.0169797298
					50:leaf=0.0233138856
			12:[f23<1.95601559] yes=25,no=26,missing=26
				25:leaf=0.0228152405
				26:leaf=0.0369174965
		6:[f27<-0.329551041] yes=13,no=14,missing=14
			13:[f20<3.47626996] yes=27,no=28,missing=28
				27:leaf=0.0151083069
				28:[f10<0.389730722] yes=51,no=52,missing=52
					51:leaf=0.0297447089
					52:leaf=0.0114053255
			14:[f0<1.7949239] yes=29,no=30,missing=30
				29:leaf=0.0248890053
				30:[f6<0.490499139] yes=53,no=54,missing=54
					53:leaf=0.010632229
					54:leaf=0.04722571
booster[29]:
0:[f23<1.11985207] yes=1,no=2,missing=2
	1:[f20<-0.247025624] yes=3,no=4,missing=4
		3:[f20<-0.663391352] yes=7,no=8,missing=8
			7:[f27<0.188678995] yes=15,no=16,missing=16
				15:[f20<-0.943562686] yes=31,no=32,missing=32
					31:leaf=-0.0104553495
					32:leaf=-0.00702211028
				16:[f27<1.70970833] yes=33,no=34,missing=34
					33:leaf=-0.00556388451
					34:leaf=-0.000943258579
			8:[f27<0.581527591] yes=17,no=18,missing=18
				17:[f20<-0.438346326] yes=35,no=36,missing=36
					35:leaf=-0.00509542972
					36:leaf=-0.00307513773
				18:[f27<2.25384378] yes=37,no=38,missing=38
					37:leaf=-0.00122155377
					38:leaf=0.00570391631
		4:[f20<0.249111116] yes=9,no=10,missing=10
			9:[f27<-1.29619074] yes=19,no=20,missing=20
				19:[f27<-2.57718325] yes=39,no=40,missing=40
					39:leaf=-0.011089826
					40:leaf=-0.00385963428
				20:[f27<0.387760729] yes=41,no=42,missing=42
					41:leaf=-0.000703321479
					42:leaf=0.0018413557
			10:[f27<1.70970833] yes=21,no=22,missing=22
				21:[f20<0.634995282] yes=43,no=44,missing=44
					43:leaf=0.00267337286
					44:leaf=0.00647027884
				22:[f27<3.00443912] yes=45,no=46,missing=46
					45:leaf=0.00923483819
					46:leaf=0.0195002872
	2:[f20<3.1999898] yes=5,no=6,missing=6
		5:[f27<1.06498146] yes=11,no=12,missing=12
			11:[f20<1.90419734] yes=23,no=24,missing=24
				23:[f27<-2.13103223] yes=47,no=48,missing=48
					47:leaf=0.00226782402
					48:leaf=0.00994144846
				24:[f27<-2.57718325] yes=49,no=50,missing=50
					49:leaf=0.00747302407
					50:leaf=0.0165309496
			12:[f20<1.80432141] yes=25,no=26,missing=26
				25:[f27<2.17359304] yes=51,no=52,missing=52
					51:leaf=0.0113524972
					52:leaf=0.0216291137
				26:[f6<2.16208863] yes=53,no=54,missing=54
					53:leaf=0.026762275
					54:leaf=0.00624642381
		6:[f27<0.422291011] yes=13,no=14,missing=14
			13:[f20<3.57355165] yes=27,no=28,missing=28
				27:[f8<0.610405028] yes=55,no=56,missing=56
					55:leaf=0.00426702527
					56:leaf=0.0204387326
				28:[f7<1.46466875] yes=57,no=58,missing=58
					57:leaf=0.0336078256
					58:leaf=0.0127282459
			14:[f21<2.42512774] yes=29,no=30,missing=30
				29:leaf=0.0179132782
				30:leaf=0.0487297252
booster[30]:
0:[f20<1.21544278] yes=1,no=2,missing=2
	1:[f20<-0.149095371] yes=3,no=4,missing=4
		3:[f20<-0.472719193] yes=7,no=8,missing=8
			7:[f27<0.728348732] yes=15,no=16,missing=16
				15:[f20<-0.866385877] yes=31,no=32,missing=32
					31:leaf=-0.00784108788
					32:leaf=-0.00507250754
				16:[f27<1.70970833] yes=33,no=34,missing=34
					33:leaf=-0.00361356861
					34:leaf=-0.000191568004
			8:[f27<0.188678995] yes=17,no=18,missing=18
				17:[f27<-1.21194291] yes=35,no=36,missing=36
					35:leaf=-0.00641093496
					36:leaf=-0.00270321663
				18:[f27<2.25384378] yes=37,no=38,missing=38
					37:leaf=-0.000921582337
					38:leaf=0.00826722197
		4:[f20<0.425515294] yes=9,no=10,missing=10
			9:[f27<-0.472008735] yes=19,no=20,missing=20
				19:[f27<-2.39755845] yes=39,no=40,missing=40
					39:leaf=-0.00629299134
					40:leaf=-0.000845259696
				20:[f27<2.17359304] yes=41,no=42,missing=42
					41:leaf=0.00145037833
					42:leaf=0.00769737083
			10:[f27<0.641673267] yes=21,no=22,missing=22
				21:[f27<-1.94836438] yes=43,no=44,missing=44
					43:leaf=-0.00190789963
					44:leaf=0.00488988869
				22:[f17<-0.993058205] yes=45,no=46,missing=46
					45:leaf=0.0149988784
					46:leaf=0.0075685042
	2:[f20<3.1999898] yes=5,no=6,missing=6
		5:[f27<1.93219626] yes=11,no=12,missing=12
			11:[f20<1.96516061] yes=23,no=24,missing=24
				23:[f27<-0.0258949976] yes=47,no=48,missing=48
					47:leaf=0.00730343023
					48:leaf=0.0113673611
				24:[f27<-0.823629975] yes=49,no=50,missing=50
					49:leaf=0.0120506072
					50:leaf=0.0178026874
			12:[f23<1.95601559] yes=25,no=26,missing=26
				25:[f5<2.06043148] yes=51,no=52,missing=52
					51:leaf=0.021102149
					52:leaf=0.00900081452
				26:leaf=0.031257052
		6:[f27<0.117891282] yes=13,no=14,missing=14
			13:[f20<3.47626996] yes=27,no=28,missing=28
				27:leaf=0.0134554701
				28:[f10<0.399172336] yes=53,no=54,missing=54
					53:leaf=0.0266225971
					54:leaf=0.00928236637
			14:[f6<0.490499139] yes=29,no=30,missing=30
				29:leaf=0.00907864608
				30:[f21<2.49779868] yes=55,no=56,missing=56
					55:leaf=0.018735338
					56:leaf=0.0413871966
booster[31]:
0:[f20<1.33996344] yes=1,no=2,missing=2
	1:[f20<-0.149095371] yes=3,no=4,missing=4
		3:[f20<-0.497363895] yes=7,no=8,missing=8
			7:[f20<-1.0473299] yes=15,no=16,missing=16
				15:leaf=-0.0114468802
				16:[f27<0.728348732] yes=31,no=32,missing=32
					31:leaf=-0.005303666
					32:leaf=-0.0022587413
			8:[f27<0.641673267] yes=17,no=18,missing=18
				17:[f27<-0.864541173] yes=33,no=34,missing=34
					33:leaf=-0.00501898304
					34:leaf=-0.00213927939
				18:[f27<2.68354964] yes=35,no=36,missing=36
					35:leaf=0.000221961513
					36:leaf=0.00831157621
		4:[f20<0.465076536] yes=9,no=10,missing=10
			9:[f27<-0.527692795] yes=19,no=20,missing=20
				19:[f27<-2.95163178] yes=37,no=38,missing=38
					37:leaf=-0.00732493773
					38:leaf=-0.00100692245
				20:[f20<0.221223697] yes=39,no=40,missing=40
					39:leaf=0.000969362387
					40:leaf=0.00350665301
			10:[f27<3.00443912] yes=21,no=22,missing=22
				21:[f27<-0.784166574] yes=41,no=42,missing=42
					41:leaf=0.00227665645
					42:leaf=0.00624819845
				22:leaf=0.0171048883
	2:[f20<3.1999898] yes=5,no=6,missing=6
		5:[f27<0.387760729] yes=11,no=12,missing=12
			11:[f20<1.90419734] yes=23,no=24,missing=24
				23:[f28<-0.262604028] yes=43,no=44,missing=44
					43:leaf=0.00264329393
					44:leaf=0.00806650054
				24:[f18<1.42071819] yes=45,no=46,missing=46
					45:leaf=0.0133607239
					46:leaf=0.00749049848
			12:[f27<1.82846272] yes=25,no=26,missing=26
				25:[f20<2.25635719] yes=47,no=48,missing=48
					47:leaf=0.0124686351
					48:leaf=0.0187732857
				26:[f13<-0.0914720371] yes=49,no=50,missing=50
					49:leaf=0.0049257041
					50:leaf=0.0240747891
		6:[f27<0.422291011] yes=13,no=14,missing=14
			13:[f20<3.57355165] yes=27,no=28,missing=28
				27:[f28<0.343654096] yes=51,no=52,missing=52
					51:leaf=0.0171243679
					52:leaf=0.00576389628
				28:[f27<-2.13103223] yes=53,no=54,missing=54
					53:leaf=0.00944333058
					54:leaf=0.0276954081
			14:[f21<2.42512774] yes=29,no=30,missing=30
				29:leaf=0.0154700922
				30:leaf=0.0406191535
booster[32]:
0:[f20<0.682339013] yes=1,no=2,missing=2
	1:[f20<-0.38581419] yes=3,no=4,missing=4
		3:[f20<-0.905298531] yes=7,no=8,missing=8
			7:[f20<-1.0473299] yes=15,no=16,missing=16
				15:[f5<-0.376573801] yes=31,no=32,missing=32
					31:leaf=-0.0106407655
					32:leaf=-0.00301488652
				16:[f27<-0.269659489] yes=33,no=34,missing=34
					33:leaf=-0.00748540927
					34:leaf=-0.00439223554
			8:[f27<0.203414798] yes=17,no=18,missing=18
				17:[f27<-1.34669185] yes=35,no=36,missing=36
					35:leaf=-0.00753931841
					36:leaf=-0.0038127217
				18:[f27<1.70970833] yes=37,no=38,missing=38
					37:leaf=-0.00248665316
					38:leaf=0.00160989224
		4:[f27<1.77930331] yes=9,no=10,missing=10
			9:[f20<-0.0330058523] yes=19,no=20,missing=20
				19:[f27<-2.13103223] yes=39,no=40,missing=40
					39:leaf=-0.010415039
					40:leaf=-0.00114193955
				20:[f27<-2.95163178] yes=41,no=42,missing=42
					41:leaf=-0.0060156961
					42:leaf=0.00153748784
			10:[f27<3.43872046] yes=21,no=22,missing=22
				21:[f3<-1.00219822] yes=43,no=44,missing=44
					43:leaf=-0.000425994396
					44:leaf=0.00559662329
				22:leaf=0.0139785102
	2:[f20<2.49761581] yes=5,no=6,missing=6
		5:[f27<1.82846272] yes=11,no=12,missing=12
			11:[f20<1.47486067] yes=23,no=24,missing=24
				23:[f17<-0.878915489] yes=45,no=46,missing=46
					45:leaf=0.00829175767
					46:leaf=0.00465208944
				24:[f27<-1.7073015] yes=47,no=48,missing=48
					47:leaf=0.00538430875
					48:leaf=0.010939016
			12:[f0<2.23656607] yes=25,no=26,missing=26
				25:leaf=0.0126274843
				26:leaf=0.0278635975
		6:[f20<3.67537308] yes=13,no=14,missing=14
			13:[f27<1.23057842] yes=27,no=28,missing=28
				27:[f12<1.4067018] yes=49,no=50,missing=50
					49:leaf=0.0158722159
					50:leaf=0.00745452056
				28:[f12<1.57110131] yes=51,no=52,missing=52
					51:leaf=0.0282893684
					52:leaf=0.00768699637
			14:[f7<1.09595168] yes=29,no=30,missing=30
				29:leaf=0.0329268463
				30:leaf=0.0160993095
booster[33]:
0:[f23<1.11985207] yes=1,no=2,missing=2
	1:[f20<-0.234703273] yes=3,no=4,missing=4
		3:[f20<-0.72240895] yes=7,no=8,missing=8
			7:[f27<-0.987581253] yes=15,no=16,missing=16
				15:[f27<-1.21194291] yes=31,no=32,missing=32
					31:leaf=-0.00938745961
					32:leaf=-0.00635080785
				16:[f20<-1.02463078] yes=33,no=34,missing=34
					33:leaf=-0.00751963118
					34:leaf=-0.00386301917
			8:[f27<-0.218700811] yes=17,no=18,missing=18
				17:[f27<-1.61367321] yes=35,no=36,missing=36
					35:leaf=-0.00689918781
					36:leaf=-0.00308215944
				18:[f27<2.68354964] yes=37,no=38,missing=38
					37:leaf=-0.00169474503
					38:leaf=0.00646882085
		4:[f20<0.249111116] yes=9,no=10,missing=10
			9:[f27<-1.29619074] yes=19,no=20,missing=20
				19:[f21<-0.399305403] yes=39,no=40,missing=40
					39:leaf=-0.0119288685
					40:leaf=-0.00330529548
				20:[f27<0.728348732] yes=41,no=42,missing=42
					41:leaf=-0.000129060776
					42:leaf=0.00233427505
			10:[f27<1.3070966] yes=21,no=22,missing=22
				21:[f27<-1.94836438] yes=43,no=44,missing=44
					43:leaf=-0.00223890436
					44:leaf=0.00312352809
				22:[f27<3.00443912] yes=45,no=46,missing=46
					45:leaf=0.00618019467
					46:leaf=0.0154208187
	2:[f20<3.1999898] yes=5,no=6,missing=6
		5:[f27<0.522746563] yes=11,no=12,missing=12
			11:[f20<1.90419734] yes=23,no=24,missing=24
				23:[f22<0.502186894] yes=47,no=48,missing=48
					47:leaf=0.000473022461
					48:leaf=0.00571161648
				24:[f28<0.051681146] yes=49,no=50,missing=50
					49:leaf=0.0119892936
					50:leaf=0.00719054416
			12:[f20<1.80432141] yes=25,no=26,missing=26
				25:[f27<3.00443912] yes=51,no=52,missing=52
					51:leaf=0.00876022689
					52:leaf=0.0172429848
				26:[f27<2.10805631] yes=53,no=54,missing=54
					53:leaf=0.0145372078
					54:leaf=0.0241159741
		6:[f27<1.01535261] yes=13,no=14,missing=14
			13:[f20<3.57355165] yes=27,no=28,missing=28
				27:[f21<3.33805609] yes=55,no=56,missing=56
					55:leaf=0.0162818097
					56:leaf=0.00838572439
				28:[f27<-2.13103223] yes=57,no=58,missing=58
					57:leaf=0.00802866649
					58:leaf=0.0237827394
			14:[f0<1.63286328] yes=29,no=30,missing=30
				29:leaf=0.010372973
				30:leaf=0.0412527882
booster[34]:
0:[f20<0.682339013] yes=1,no=2,missing=2
	1:[f20<-0.413053095] yes=3,no=4,missing=4
		3:[f27<-0.321845025] yes=7,no=8,missing=8
			7:[f20<-0.866385877] yes=15,no=16,missing=16
				15:[f27<-1.21194291] yes=31,no=32,missing=32
					31:leaf=-0.00878330786
					32:leaf=-0.00578047056
				16:[f27<-1.38364732] yes=33,no=34,missing=34
					33:leaf=-0.00618791347
					34:leaf=-0.00348300789
			8:[f20<-1.01555121] yes=17,no=18,missing=18
				17:[f20<-1.0473299] yes=35,no=36,missing=36
					35:leaf=-0.00761547079
					36:leaf=-0.00443255296
				18:[f27<1.33223617] yes=37,no=38,missing=38
					37:leaf=-0.00281033758
					38:leaf=1.13232463e-05
		4:[f27<1.3070966] yes=9,no=10,missing=10
			9:[f20<-0.136124462] yes=19,no=20,missing=20
				19:[f27<-0.18733874] yes=39,no=40,missing=40
					39:leaf=-0.00231078477
					40:leaf=-0.000696792675
				20:[f27<-1.05853105] yes=41,no=42,missing=42
					41:leaf=-0.00239859894
					42:leaf=0.000953175535
			10:[f27<3.43872046] yes=21,no=22,missing=22
				21:[f27<2.25384378] yes=43,no=44,missing=44
					43:leaf=0.00253882981
					44:leaf=0.00505961198
				22:[f0<-0.529197216] yes=45,no=46,missing=46
					45:leaf=0.00358601823
					46:leaf=0.0135149602
	2:[f20<2.96716213] yes=5,no=6,missing=6
		5:[f20<1.96516061] yes=11,no=12,missing=12
			11:[f27<0.641673267] yes=23,no=24,missing=24
				23:[f22<0.397647381] yes=47,no=48,missing=48
					47:leaf=0.00186244014
					48:leaf=0.00513722608
				24:[f27<3.00443912] yes=49,no=50,missing=50
					49:leaf=0.00787170883
					50:leaf=0.0152680399
			12:[f27<1.82846272] yes=25,no=26,missing=26
				25:[f27<-1.07353616] yes=51,no=52,missing=52
					51:leaf=0.00684049679
					52:leaf=0.0112857083
				26:[f1<2.21065211] yes=53,no=54,missing=54
					53:leaf=0.022895908
					54:leaf=0.00592865935
		6:[f27<0.422291011] yes=13,no=14,missing=14
			13:[f20<3.47626996] yes=27,no=28,missing=28
				27:[f17<0.148368627] yes=55,no=56,missing=56
					55:leaf=0.011277291
					56:leaf=0.00441865949
				28:[f27<-1.52748752] yes=57,no=58,missing=58
					57:leaf=0.0100024901
					58:leaf=0.0201985985
			14:[f8<0.667193651] yes=29,no=30,missing=30
				29:leaf=0.00981524866
				30:[f14<1.71629143] yes=59,no=60,missing=60
					59:leaf=0.0284163244
					60:leaf=0.00591793051
booster[35]:
0:[f20<1.33996344] yes=1,no=2,missing=2
	1:[f20<-0.234703273] yes=3,no=4,missing=4
		3:[f20<-0.689981699] yes=7,no=8,missing=8
			7:[f27<-0.00304822996] yes=15,no=16,missing=16
				15:[f20<-1.02463078] yes=31,no=32,missing=32
					31:leaf=-0.00900002196
					32:leaf=-0.00444838498
				16:[f27<2.17359304] yes=33,no=34,missing=34
					33:leaf=-0.00314694643
					34:leaf=0.00116008718
			8:[f27<0.806306541] yes=17,no=18,missing=18
				17:[f27<-1.21194291] yes=35,no=36,missing=36
					35:leaf=-0.00470064394
					36:leaf=-0.00184556469
				18:[f27<2.68354964] yes=37,no=38,missing=38
					37:leaf=-8.28067496e-05
					38:leaf=0.00556003628
		4:[f20<0.249111116] yes=9,no=10,missing=10
			9:[f27<-0.177374467] yes=19,no=20,missing=20
				19:[f27<-2.57718325] yes=39,no=40,missing=40
					39:leaf=-0.00765533093
					40:leaf=-0.000925490924
				20:[f26<1.65706861] yes=41,no=42,missing=42
					41:leaf=0.000683392514
					42:leaf=0.00399169326
			10:[f27<0.806306541] yes=21,no=22,missing=22
				21:[f27<-2.57718325] yes=43,no=44,missing=44
					43:leaf=-0.0027840049
					44:leaf=0.00258351117
				22:[f27<3.00443912] yes=45,no=46,missing=46
					45:leaf=0.00480964081
					46:leaf=0.0125377774
	2:[f20<3.1999898] yes=5,no=6,missing=6
		5:[f27<0.387760729] yes=11,no=12,missing=12
			11:[f11<1.7910893] yes=23,no=24,missing=24
				23:[f27<-0.013835636] yes=47,no=48,missing=48
					47:leaf=0.00386251952
					48:leaf=0.00874404516
				24:[f6<-0.145623729] yes=49,no=50,missing=50
					49:leaf=0.00196666713
					50:leaf=0.00924691278
			12:[f27<2.17359304] yes=25,no=26,missing=26
				25:[f20<2.25635719] yes=51,no=52,missing=52
					51:leaf=0.00883775856
					52:leaf=0.0134628043
				26:[f21<1.62899184] yes=53,no=54,missing=54
					53:leaf=0.00772284297
					54:leaf=0.0214276966
		6:[f27<1.01535261] yes=13,no=14,missing=14
			13:[f20<3.67537308] yes=27,no=28,missing=28
				27:[f17<0.833224714] yes=55,no=56,missing=56
					55:leaf=0.0138338376
					56:leaf=0.00665696058
				28:[f0<2.0079639] yes=57,no=58,missing=58
					57:leaf=0.00329246535
					58:leaf=0.0211841054
			14:[f0<1.63286328] yes=29,no=30,missing=30
				29:leaf=0.0084334854
				30:leaf=0.0356792063
booster[36]:
0:[f23<1.46029735] yes=1,no=2,missing=2
	1:[f20<-0.0330058523] yes=3,no=4,missing=4
		3:[f20<-0.464288116] yes=7,no=8,missing=8
			7:[f27<-0.987581253] yes=15,no=16,missing=16
				15:[f4<-0.0389977954] yes=31,no=32,missing=32
					31:leaf=-0.00600828975
					32:leaf=-0.00344066299
				16:[f20<-1.01555121] yes=33,no=34,missing=34
					33:leaf=-0.00541748758
					34:leaf=-0.00244899583
			8:[f27<-0.0935054272] yes=17,no=18,missing=18
				17:[f27<-2.57718325] yes=35,no=36,missing=36
					35:leaf=-0.00954644289
					36:leaf=-0.00164652651
				18:[f27<1.11456084] yes=37,no=38,missing=38
					37:leaf=-0.000484275079
					38:leaf=0.002116099
		4:[f20<0.634995282] yes=9,no=10,missing=10
			9:[f27<3.00443912] yes=19,no=20,missing=20
				19:[f27<-1.34669185] yes=39,no=40,missing=40
					39:leaf=-0.00173099549
					40:leaf=0.0013544953
				20:leaf=0.0141412495
			10:[f27<-0.556539297] yes=21,no=22,missing=22
				21:[f0<0.681964517] yes=41,no=42,missing=42
					41:leaf=0.00295234611
					42:leaf=0.000363987696
				22:[f8<1.90189731] yes=43,no=44,missing=44
					43:leaf=0.00591767579
					44:leaf=0.00237075333
	2:[f20<3.1999898] yes=5,no=6,missing=6
		5:[f27<1.93219626] yes=11,no=12,missing=12
			11:[f27<-1.07353616] yes=23,no=24,missing=24
				23:[f12<1.07450414] yes=45,no=46,missing=46
					45:leaf=0.00668956479
					46:leaf=0.00116245565
				24:[f20<1.40157521] yes=47,no=48,missing=48
					47:leaf=0.00306622032
					48:leaf=0.00894744974
			12:[f1<2.16403985] yes=25,no=26,missing=26
				25:leaf=0.0199712757
				26:[f13<0.0902701616] yes=49,no=50,missing=50
					49:leaf=0.00317276316
					50:leaf=0.0113430023
		6:[f27<1.01535261] yes=13,no=14,missing=14
			13:[f20<3.67537308] yes=27,no=28,missing=28
				27:[f27<-0.538214564] yes=51,no=52,missing=52
					51:leaf=0.00808179565
					52:leaf=0.0139414147
				28:[f27<-1.52748752] yes=53,no=54,missing=54
					53:leaf=0.00755820284
					54:leaf=0.0202280451
			14:[f0<1.63286328] yes=29,no=30,missing=30
				29:leaf=0.00801181793
				30:leaf=0.0328249
booster[37]:
0:[f23<1.46029735] yes=1,no=2,missing=2
	1:[f20<-0.180874065] yes=3,no=4,missing=4
		3:[f20<-0.464288116] yes=7,no=8,missing=8
			7:[f27<1.23057842] yes=15,no=16,missing=16
				15:[f20<-0.96042484] yes=31,no=32,missing=32
					31:leaf=-0.00498902006
					32:leaf=-0.00261838362
				16:[f27<2.68354964] yes=33,no=34,missing=34
					33:leaf=-0.000903279171
					34:leaf=0.00251640473
			8:[f27<-0.50326854] yes=17,no=18,missing=18
				17:[f27<-2.57718325] yes=35,no=36,missing=36
					35:leaf=-0.00937737245
					36:leaf=-0.00225919974
				18:[f27<0.806306541] yes=37,no=38,missing=38
					37:leaf=-0.000955570024
					38:leaf=0.00109445897
		4:[f20<0.634995282] yes=9,no=10,missing=10
			9:[f27<2.17359304] yes=19,no=20,missing=20
				19:[f27<-0.472008735] yes=39,no=40,missing=40
					39:leaf=-0.000999368145
					40:leaf=0.000857595063
				20:[f27<3.00443912] yes=41,no=42,missing=42
					41:leaf=0.00401315466
					42:leaf=0.0123828175
			10:[f27<-0.321845025] yes=21,no=22,missing=22
				21:[f0<0.718991637] yes=43,no=44,missing=44
					43:leaf=0.00307710259
					44:leaf=0.000347692083
				22:[f8<1.90189731] yes=45,no=46,missing=46
					45:leaf=0.00547387032
					46:leaf=0.00250641326
	2:[f20<3.1999898] yes=5,no=6,missing=6
		5:[f27<1.93219626] yes=11,no=12,missing=12
			11:[f20<1.96516061] yes=23,no=24,missing=24
				23:[f3<0.550800443] yes=47,no=48,missing=48
					47:leaf=0.00673387526
					48:leaf=0.00392618822
				24:[f28<0.051681146] yes=49,no=50,missing=50
					49:leaf=0.00928021967
					50:leaf=0.00613105576
			12:[f1<2.16403985] yes=25,no=26,missing=26
				25:leaf=0.0181960519
				26:[f13<0.0902701616] yes=51,no=52,missing=52
					51:leaf=0.00296123838
					52:leaf=0.0103707453
		6:[f27<1.01535261] yes=13,no=14,missing=14
			13:[f20<3.57355165] yes=27,no=28,missing=28
				27:[f21<3.33805609] yes=53,no=54,missing=54
					53:leaf=0.0111740185
					54:leaf=0.00478663435
				28:[f21<3.47690964] yes=55,no=56,missing=56
					55:leaf=0.0105035435
					56:leaf=0.0182738956
			14:[f0<1.63286328] yes=29,no=30,missing=30
				29:leaf=0.00761122722
				30:leaf=0.0301989373
booster[38]:
0:[f20<1.33996344] yes=1,no=2,missing=2
	1:[f20<-0.300206304] yes=3,no=4,missing=4
		3:[f27<-0.797143936] yes=7,no=8,missing=8
			7:[f27<-1.94836438] yes=15,no=16,missing=16
				15:[f24<-0.385638803] yes=31,no=32,missing=32
					31:leaf=-0.0093785245
					32:leaf=-0.00414907932
				16:[f23<-0.743329048] yes=33,no=34,missing=34
					33:leaf=-0.00436194008
					34:leaf=-0.00265605538
			8:[f20<-0.937077224] yes=17,no=18,missing=18
				17:[f20<-1.0473299] yes=35,no=36,missing=36
					35:leaf=-0.0059520714
					36:leaf=-0.00284972624
				18:[f27<2.68354964] yes=37,no=38,missing=38
					37:leaf=-0.00149082788
					38:leaf=0.00434090057
		4:[f20<0.221223697] yes=9,no=10,missing=10
			9:[f27<-1.47820401] yes=19,no=20,missing=20
				19:[f27<-2.95163178] yes=39,no=40,missing=40
					39:leaf=-0.00813367032
					40:leaf=-0.00278707664
				20:[f27<1.25535488] yes=41,no=42,missing=42
					41:leaf=-0.00017864749
					42:leaf=0.00273348368
			10:[f27<3.00443912] yes=21,no=22,missing=22
				21:[f27<-2.95163178] yes=43,no=44,missing=44
					43:leaf=-0.00306629459
					44:leaf=0.00234879856
				22:leaf=0.0105276108
	2:[f20<3.1999898] yes=5,no=6,missing=6
		5:[f27<0.387760729] yes=11,no=12,missing=12
			11:[f0<1.87810075] yes=23,no=24,missing=24
				23:[f9<0.825322092] yes=45,no=46,missing=46
					45:leaf=-0.00296777091
					46:leaf=0.00360853411
				24:[f18<1.42071819] yes=47,no=48,missing=48
					47:leaf=0.00723454123
					48:leaf=0.00185726886
			12:[f27<2.17359304] yes=25,no=26,missing=26
				25:[f17<-1.56377161] yes=49,no=50,missing=50
					49:leaf=-0.0030650855
					50:leaf=0.00848412048
				26:[f21<1.62899184] yes=51,no=52,missing=52
					51:leaf=0.00552467117
					52:leaf=0.0170248747
		6:[f27<1.01535261] yes=13,no=14,missing=14
			13:[f20<3.67537308] yes=27,no=28,missing=28
				27:[f27<-0.538214564] yes=53,no=54,missing=54
					53:leaf=0.00646359101
					54:leaf=0.0115966992
				28:[f10<0.28939265] yes=55,no=56,missing=56
					55:leaf=0.00580523023
					56:leaf=0.0168776177
			14:[f0<1.63286328] yes=29,no=30,missing=30
				29:leaf=0.00723066321
				30:leaf=0.027783012
booster[39]:
0:[f23<1.46029735] yes=1,no=2,missing=2
	1:[f20<-0.234703273] yes=3,no=4,missing=4
		3:[f27<-0.51302886] yes=7,no=8,missing=8
			7:[f27<-1.81643367] yes=15,no=16,missing=16
				15:[f24<-0.23027198] yes=31,no=32,missing=32
					31:leaf=-0.0071789138
					32:leaf=-0.00316702737
				16:[f20<-0.800234318] yes=33,no=34,missing=34
					33:leaf=-0.00376017694
					34:leaf=-0.00209995615
			8:[f20<-0.438346326] yes=17,no=18,missing=18
				17:[f27<1.70970833] yes=35,no=36,missing=36
					35:leaf=-0.00191053399
					36:leaf=0.000837819127
				18:[f27<1.38346863] yes=37,no=38,missing=38
					37:leaf=-0.000712470093
					38:leaf=0.00264876452
		4:[f20<0.249111116] yes=9,no=10,missing=10
			9:[f27<-1.47820401] yes=19,no=20,missing=20
				19:[f21<-0.399305403] yes=39,no=40,missing=40
					39:leaf=-0.00894170627
					40:leaf=-0.00257169316
				20:[f27<-0.102730356] yes=41,no=42,missing=42
					41:leaf=-0.000513822248
					42:leaf=0.000705775281
			10:[f27<0.662640393] yes=21,no=22,missing=22
				21:[f27<-2.95163178] yes=43,no=44,missing=44
					43:leaf=-0.00312745245
					44:leaf=0.00163701107
				22:[f27<3.00443912] yes=45,no=46,missing=46
					45:leaf=0.00351672969
					46:leaf=0.00925082248
	2:[f20<3.1999898] yes=5,no=6,missing=6
		5:[f27<1.93219626] yes=11,no=12,missing=12
			11:[f20<2.49761581] yes=23,no=24,missing=24
				23:[f27<-1.81643367] yes=47,no=48,missing=48
					47:leaf=0.00141730311
					48:leaf=0.0052264533
				24:[f17<-1.56377161] yes=49,no=50,missing=50
					49:leaf=-0.00291183009
					50:leaf=0.00781325344
			12:[f1<2.16403985] yes=25,no=26,missing=26
				25:leaf=0.0154777737
				26:[f13<0.0902701616] yes=51,no=52,missing=52
					51:leaf=0.00191353168
					52:leaf=0.00855286513
		6:[f27<1.01535261] yes=13,no=14,missing=14
			13:[f20<3.57355165] yes=27,no=28,missing=28
				27:[f3<1.9165684] yes=53,no=54,missing=54
					53:leaf=0.00209525111
					54:leaf=0.00872444268
				28:[f7<1.37621474] yes=55,no=56,missing=56
					55:leaf=0.0144964727
					56:leaf=0.0067457878
			14:[f0<1.63286328] yes=29,no=30,missing=30
				29:leaf=0.00686912565
				30:leaf=0.0255603399
booster[40]:
0:[f20<1.40157521] yes=1,no=2,missing=2
	1:[f20<-0.180874065] yes=3,no=4,missing=4
		3:[f27<-0.797143936] yes=7,no=8,missing=8
			7:[f27<-2.05228353] yes=15,no=16,missing=16
				15:[f6<-0.583841681] yes=31,no=32,missing=32
					31:leaf=-0.00888240989
					32:leaf=-0.00307870866
				16:[f20<-0.738622546] yes=33,no=34,missing=34
					33:leaf=-0.00364807877
					34:leaf=-0.00207017502
			8:[f20<-0.438346326] yes=17,no=18,missing=18
				17:[f20<-1.03760171] yes=35,no=36,missing=36
					35:leaf=-0.00455676345
					36:leaf=-0.0015337388
				18:[f27<0.806306541] yes=37,no=38,missing=38
					37:leaf=-0.000706446706
					38:leaf=0.00110941788
		4:[f27<3.00443912] yes=9,no=10,missing=10
			9:[f20<0.634995282] yes=19,no=20,missing=20
				19:[f27<-0.0724378526] yes=39,no=40,missing=40
					39:leaf=-0.000488277583
					40:leaf=0.000979377306
				20:[f0<0.669085503] yes=41,no=42,missing=42
					41:leaf=0.00366460835
					42:leaf=0.000951073598
			10:[f7<1.18076766] yes=21,no=22,missing=22
				21:leaf=0.0142110987
				22:leaf=0.00551989069
	2:[f20<3.1999898] yes=5,no=6,missing=6
		5:[f27<1.06498146] yes=11,no=12,missing=12
			11:[f27<-1.07353616] yes=23,no=24,missing=24
				23:[f12<1.0628047] yes=43,no=44,missing=44
					43:leaf=0.00418119458
					44:leaf=9.34294294e-05
				24:[f8<0.90803802] yes=45,no=46,missing=46
					45:leaf=0.00328277797
					46:leaf=0.00621527387
			12:[f20<2.25635719] yes=25,no=26,missing=26
				25:[f11<1.8463074] yes=47,no=48,missing=48
					47:leaf=0.00351209193
					48:leaf=0.00811474677
				26:[f25<2.09868431] yes=49,no=50,missing=50
					49:leaf=0.0068323547
					50:leaf=0.0128887659
		6:[f27<1.01535261] yes=13,no=14,missing=14
			13:[f27<-1.52748752] yes=27,no=28,missing=28
				27:[f10<0.283023775] yes=51,no=52,missing=52
					51:leaf=0.00625281362
					52:leaf=0.00290369987
				28:[f7<1.5219115] yes=53,no=54,missing=54
					53:leaf=0.0117741218
					54:leaf=0.00380382547
			14:[f0<1.63286328] yes=29,no=30,missing=30
				29:leaf=0.00652565947
				30:leaf=0.0235155113
booster[41]:
0:[f20<1.40157521] yes=1,no=2,missing=2
	1:[f20<-0.0103067849] yes=3,no=4,missing=4
		3:[f20<-0.438346326] yes=7,no=8,missing=8
			7:[f27<0.604251742] yes=15,no=16,missing=16
				15:[f20<-1.07197452] yes=27,no=28,missing=28
					27:leaf=-0.00885223597
					28:leaf=-0.0019994597
				16:[f27<1.70970833] yes=29,no=30,missing=30
					29:leaf=-0.000882802939
					30:leaf=0.000937317498
			8:[f27<-1.24279416] yes=17,no=18,missing=18
				17:[f27<-2.95163178] yes=31,no=32,missing=32
					31:leaf=-0.00785167795
					32:leaf=-0.00236352393
				18:[f27<0.41700241] yes=33,no=34,missing=34
					33:leaf=-0.000638930302
					34:leaf=0.000512648316
		4:[f27<3.43872046] yes=9,no=10,missing=10
			9:[f27<-2.95163178] yes=19,no=20,missing=20
				19:[f24<3.05655432] yes=35,no=36,missing=36
					35:leaf=-0.0037409931
					36:leaf=-9.47634398e-05
				20:[f20<0.634995282] yes=37,no=38,missing=38
					37:leaf=0.000849114265
					38:leaf=0.00238943822
			10:leaf=0.0132636866
	2:[f20<3.1999898] yes=5,no=6,missing=6
		5:[f27<1.06498146] yes=11,no=12,missing=12
			11:[f22<3.86238623] yes=21,no=22,missing=22
				21:[f21<2.96756434] yes=39,no=40,missing=40
					39:leaf=0.00328733446
					40:leaf=0.00606361544
				22:leaf=0.00804430246
			12:[f20<2.25635719] yes=23,no=24,missing=24
				23:[f9<0.91464752] yes=41,no=42,missing=42
					41:leaf=0.00866744574
					42:leaf=0.00404933793
				24:[f14<1.65420187] yes=43,no=44,missing=44
					43:leaf=0.0111312252
					44:leaf=0.00454587955
		6:[f27<1.01535261] yes=13,no=14,missing=14
			13:[f20<3.67537308] yes=25,no=26,missing=26
				25:[f3<1.9165684] yes=45,no=46,missing=46
					45:leaf=0.00201272964
					46:leaf=0.00769947562
				26:[f17<0.262511313] yes=47,no=48,missing=48
					47:leaf=0.00645757932
					48:leaf=0.0146805095
			14:leaf=0.0200949982
booster[42]:
0:[f20<1.40157521] yes=1,no=2,missing=2
	1:[f20<-0.302800477] yes=3,no=4,missing=4
		3:[f27<0.203414798] yes=7,no=8,missing=8
			7:[f20<-0.800234318] yes=15,no=16,missing=16
				15:[f20<-1.07197452] yes=31,no=32,missing=32
					31:leaf=-0.0100138905
					32:leaf=-0.00282604154
				16:[f27<-1.29619074] yes=33,no=34,missing=34
					33:leaf=-0.0028799891
					34:leaf=-0.00125048822
			8:[f27<2.68354964] yes=17,no=18,missing=18
				17:[f20<-0.948102534] yes=35,no=36,missing=36
					35:leaf=-0.00196741405
					36:leaf=-0.000547503587
				18:[f2<-1.44112706] yes=37,no=38,missing=38
					37:leaf=-0.00343867554
					38:leaf=0.00360828638
		4:[f27<2.68354964] yes=9,no=10,missing=10
			9:[f20<0.634995282] yes=19,no=20,missing=20
				19:[f27<-2.95163178] yes=39,no=40,missing=40
					39:leaf=-0.0052943374
					40:leaf=7.33940033e-05
				20:[f20<1.26343513] yes=41,no=42,missing=42
					41:leaf=0.00244998722
					42:leaf=-0.00106141414
			10:[f27<3.43872046] yes=21,no=22,missing=22
				21:[f0<0.632058442] yes=43,no=44,missing=44
					43:leaf=0.000904989254
					44:leaf=0.00458649825
				22:leaf=0.0106467344
	2:[f20<3.1999898] yes=5,no=6,missing=6
		5:[f27<0.387760729] yes=11,no=12,missing=12
			11:[f11<1.7910893] yes=23,no=24,missing=24
				23:[f4<3.4705596] yes=45,no=46,missing=46
					45:leaf=0.0016434819
					46:leaf=0.00686883926
				24:[f9<0.825322092] yes=47,no=48,missing=48
					47:leaf=-0.000776449859
					48:leaf=0.00487942109
			12:[f27<3.00443912] yes=25,no=26,missing=26
				25:[f17<-1.56377161] yes=49,no=50,missing=50
					49:leaf=-0.00324134831
					50:leaf=0.00625489373
				26:leaf=0.0152101992
		6:[f27<0.878074706] yes=13,no=14,missing=14
			13:[f20<3.57355165] yes=27,no=28,missing=28
				27:[f21<3.33805609] yes=51,no=52,missing=52
					51:leaf=0.00663259951
					52:leaf=0.00185059314
				28:[f21<3.47690964] yes=53,no=54,missing=54
					53:leaf=0.00599585427
					54:leaf=0.0119101079
			14:[f0<1.63286328] yes=29,no=30,missing=30
				29:leaf=0.0051946165
				30:leaf=0.0188968834
booster[43]:
0:[f23<1.46029735] yes=1,no=2,missing=2
	1:[f20<-0.0330058523] yes=3,no=4,missing=4
		3:[f27<-1.02756643] yes=7,no=8,missing=8
			7:[f27<-2.05228353] yes=15,no=16,missing=16
				15:[f21<-0.399305403] yes=29,no=30,missing=30
					29:leaf=-0.00747566624
					30:leaf=-0.00297406013
				16:[f20<-0.738622546] yes=31,no=32,missing=32
					31:leaf=-0.00342030055
					32:leaf=-0.00163593644
			8:[f20<-0.382571489] yes=17,no=18,missing=18
				17:[f20<-1.01555121] yes=33,no=34,missing=34
					33:leaf=-0.00314237433
					34:leaf=-0.00103249121
				18:[f27<1.64113653] yes=35,no=36,missing=36
					35:leaf=-0.000270424644
					36:leaf=0.00346870208
		4:[f27<1.3070966] yes=9,no=10,missing=10
			9:[f27<-1.29619074] yes=19,no=20,missing=20
				19:[f22<2.56310916] yes=37,no=38,missing=38
					37:leaf=-0.000494612555
					38:leaf=-0.00567853451
				20:[f23<0.47389093] yes=39,no=40,missing=40
					39:leaf=0.000533436483
					40:leaf=0.00190060795
			10:[f27<3.43872046] yes=21,no=22,missing=22
				21:[f22<0.267784595] yes=41,no=42,missing=42
					41:leaf=0.00169362873
					42:leaf=0.00415359018
				22:leaf=0.00992004853
	2:[f20<3.1999898] yes=5,no=6,missing=6
		5:[f27<3.00443912] yes=11,no=12,missing=12
			11:[f20<1.90419734] yes=23,no=24,missing=24
				23:[f2<0.943865299] yes=43,no=44,missing=44
					43:leaf=0.00407275045
					44:leaf=0.00117537833
				24:[f27<1.47137344] yes=45,no=46,missing=46
					45:leaf=0.00402094191
					46:leaf=0.00799167156
			12:leaf=0.0144393565
		6:[f27<1.01535261] yes=13,no=14,missing=14
			13:[f27<-0.329551041] yes=25,no=26,missing=26
				25:[f18<0.709483624] yes=47,no=48,missing=48
					47:leaf=0.00247766287
					48:leaf=0.00794845913
				26:[f6<1.79808497] yes=49,no=50,missing=50
					49:leaf=0.00967813656
					50:leaf=-0.000146627426
			14:[f0<1.63286328] yes=27,no=28,missing=28
				27:leaf=0.00493488321
				28:leaf=0.0185148995
booster[44]:
0:[f20<0.867174268] yes=1,no=2,missing=2
	1:[f20<-0.317068458] yes=3,no=4,missing=4
		3:[f27<0.203414798] yes=7,no=8,missing=8
			7:[f20<-0.866385877] yes=15,no=16,missing=16
				15:[f20<-1.07197452] yes=31,no=32,missing=32
					31:leaf=-0.00899236184
					32:leaf=-0.00250408426
				16:[f27<-1.38364732] yes=33,no=34,missing=34
					33:leaf=-0.00256284839
					34:leaf=-0.00111264619
			8:[f27<2.10805631] yes=17,no=18,missing=18
				17:[f20<-0.689981699] yes=35,no=36,missing=36
					35:leaf=-0.00120664772
					36:leaf=-0.000296200364
				18:[f20<-1.07197452] yes=37,no=38,missing=38
					37:leaf=-0.00270096865
					38:leaf=0.00202317419
		4:[f27<2.17359304] yes=9,no=10,missing=10
			9:[f27<-0.443919212] yes=19,no=20,missing=20
				19:[f27<-2.95163178] yes=39,no=40,missing=40
					39:leaf=-0.00455707544
					40:leaf=-0.000727940991
				20:[f20<0.221223697] yes=41,no=42,missing=42
					41:leaf=0.000146250182
					42:leaf=0.00135523768
			10:[f23<0.268412858] yes=21,no=22,missing=22
				21:[f22<-0.0679106861] yes=43,no=44,missing=44
					43:leaf=0.00176169875
					44:leaf=0.0081432499
				22:[f0<0.444239825] yes=45,no=46,missing=46
					45:leaf=-0.000909709954
					46:leaf=0.00236586831
	2:[f20<2.49761581] yes=5,no=6,missing=6
		5:[f27<3.00443912] yes=11,no=12,missing=12
			11:[f22<3.86238623] yes=23,no=24,missing=24
				23:[f8<0.547780514] yes=47,no=48,missing=48
					47:leaf=0.00613743998
					48:leaf=0.00207681162
				24:leaf=0.00642256765
			12:[f0<0.718991637] yes=25,no=26,missing=26
				25:leaf=0.0028424263
				26:leaf=0.0133563876
		6:[f20<3.86020827] yes=13,no=14,missing=14
			13:[f27<0.340662658] yes=27,no=28,missing=28
				27:[f9<0.825322092] yes=49,no=50,missing=50
					49:leaf=-0.00187801127
					50:leaf=0.00458036503
				28:[f17<-1.56377161] yes=51,no=52,missing=52
					51:leaf=-0.00328032975
					52:leaf=0.00868428499
			14:[f27<-1.52748752] yes=29,no=30,missing=30
				29:leaf=0.00289560948
				30:leaf=0.0147984503
booster[45]:
0:[f20<1.40157521] yes=1,no=2,missing=2
	1:[f20<-0.136124462] yes=3,no=4,missing=4
		3:[f27<-0.321845025] yes=7,no=8,missing=8
			7:[f27<-1.94836438] yes=15,no=16,missing=16
				15:[f15<-0.176407546] yes=29,no=30,missing=30
					29:leaf=-0.00764116971
					30:leaf=-0.0029726983
				16:[f20<-0.878708243] yes=31,no=32,missing=32
					31:leaf=-0.00242168526
					32:leaf=-0.00112911116
			8:[f20<-0.566109657] yes=17,no=18,missing=18
				17:[f20<-1.07197452] yes=33,no=34,missing=34
					33:leaf=-0.00456902245
					34:leaf=-0.000948421774
				18:[f27<1.01535261] yes=35,no=36,missing=36
					35:leaf=-0.000368920184
					36:leaf=0.00122009905
		4:[f27<3.00443912] yes=9,no=10,missing=10
			9:[f27<-0.784166574] yes=19,no=20,missing=20
				19:[f27<-2.95163178] yes=37,no=38,missing=38
					37:leaf=-0.00268645515
					38:leaf=-0.000229950951
				20:[f20<0.221223697] yes=39,no=40,missing=40
					39:leaf=0.000338510901
					40:leaf=0.00145402772
			10:[f7<1.18076766] yes=21,no=22,missing=22
				21:leaf=0.0101410067
				22:leaf=0.00379406451
	2:[f20<3.86020827] yes=5,no=6,missing=6
		5:[f27<1.82846272] yes=11,no=12,missing=12
			11:[f27<-1.07353616] yes=23,no=24,missing=24
				23:[f28<0.051681146] yes=41,no=42,missing=42
					41:leaf=0.00296270847
					42:leaf=-0.000152299879
				24:[f24<0.405354172] yes=43,no=44,missing=44
					43:leaf=0.00798046589
					44:leaf=0.00380812469
			12:[f0<2.23656607] yes=25,no=26,missing=26
				25:[f24<1.26017749] yes=45,no=46,missing=46
					45:leaf=0.0090232566
					46:leaf=0.0029299648
				26:leaf=0.0128423395
		6:[f27<-1.52748752] yes=13,no=14,missing=14
			13:leaf=0.00270258589
			14:[f0<2.91110301] yes=27,no=28,missing=28
				27:leaf=0.016026631
				28:leaf=0.00697393436
booster[46]:
0:[f20<1.80432141] yes=1,no=2,missing=2
	1:[f20<0.138858512] yes=3,no=4,missing=4
		3:[f27<-1.0929513] yes=7,no=8,missing=8
			7:[f27<-2.05228353] yes=13,no=14,missing=14
				13:[f15<-0.176407546] yes=25,no=26,missing=26
					25:leaf=-0.00706808595
					26:leaf=-0.0030501287
				14:[f20<-0.738622546] yes=27,no=28,missing=28
					27:leaf=-0.00290511572
					28:leaf=-0.00125903625
			8:[f20<-0.317068458] yes=15,no=16,missing=16
				15:[f27<1.23057842] yes=29,no=30,missing=30
					29:leaf=-0.000898313359
					30:leaf=0.000446356222
				16:[f8<1.65826845] yes=31,no=32,missing=32
					31:leaf=5.33265666e-05
					32:leaf=-0.00523142843
		4:[f27<3.00443912] yes=9,no=10,missing=10
			9:[f27<0.387760729] yes=17,no=18,missing=18
				17:[f27<-2.13103223] yes=33,no=34,missing=34
					33:leaf=-0.0015907333
					34:leaf=0.00060288253
				18:[f0<1.11824036] yes=35,no=36,missing=36
					35:leaf=0.00227863784
					36:leaf=0.000558686268
			10:[f6<1.2679826] yes=19,no=20,missing=20
				19:leaf=0.0100785373
				20:leaf=0.00299082999
	2:[f27<2.17359304] yes=5,no=6,missing=6
		5:[f20<3.86020827] yes=11,no=12,missing=12
			11:[f27<-0.013835636] yes=21,no=22,missing=22
				21:[f28<0.051681146] yes=37,no=38,missing=38
					37:leaf=0.00386095163
					38:leaf=0.00108081591
				22:[f12<0.841661572] yes=39,no=40,missing=40
					39:leaf=0.00236959849
					40:leaf=0.00569664221
			12:[f27<-1.52748752] yes=23,no=24,missing=24
				23:leaf=0.002522405
				24:[f0<2.91110301] yes=41,no=42,missing=42
					41:leaf=0.0147445118
					42:leaf=0.00645086775
		6:leaf=0.0122412955
booster[47]:
0:[f20<0.867174268] yes=1,no=2,missing=2
	1:[f27<0.392482638] yes=3,no=4,missing=4
		3:[f20<-0.800234318] yes=7,no=8,missing=8
			7:[f20<-1.07197452] yes=15,no=16,missing=16
				15:leaf=-0.00772031909
				16:[f27<-1.21194291] yes=31,no=32,missing=32
					31:leaf=-0.00318543916
					32:leaf=-0.00159790646
			8:[f27<-2.39755845] yes=17,no=18,missing=18
				17:[f6<0.755550325] yes=33,no=34,missing=34
					33:leaf=-0.0039028048
					34:leaf=0.000460809475
				18:[f20<-0.240540177] yes=35,no=36,missing=36
					35:leaf=-0.000726699072
					36:leaf=-7.30399261e-05
		4:[f27<2.68354964] yes=9,no=10,missing=10
			9:[f20<0.101891458] yes=19,no=20,missing=20
				19:[f20<0.0707613081] yes=37,no=38,missing=38
					37:leaf=1.62708932e-06
					38:leaf=-0.00376267778
				20:[f11<-0.265284866] yes=39,no=40,missing=40
					39:leaf=0.000528345932
					40:leaf=0.00227797381
			10:[f20<-0.972747207] yes=21,no=22,missing=22
				21:[f0<-1.44897175] yes=41,no=42,missing=42
					41:leaf=-0.00276843901
					42:leaf=0.000538349152
				22:[f17<-0.079916738] yes=43,no=44,missing=44
					43:leaf=0.00569381192
					44:leaf=0.0023489506
	2:[f20<2.88349986] yes=5,no=6,missing=6
		5:[f27<1.82846272] yes=11,no=12,missing=12
			11:[f27<-2.05228353] yes=23,no=24,missing=24
				23:[f28<0.0426872037] yes=45,no=46,missing=46
					45:leaf=0.00137920387
					46:leaf=-0.00280343695
				24:[f24<0.304224133] yes=47,no=48,missing=48
					47:leaf=-0.000625619898
					48:leaf=0.00228076638
			12:[f0<2.23656607] yes=25,no=26,missing=26
				25:[f24<1.26017749] yes=49,no=50,missing=50
					49:leaf=0.00523170782
					50:leaf=0.00139390945
				26:leaf=0.00966818724
		6:[f27<0.422291011] yes=13,no=14,missing=14
			13:[f12<0.825489938] yes=27,no=28,missing=28
				27:[f28<0.120503046] yes=51,no=52,missing=52
					51:leaf=0.00250071683
					52:leaf=-0.00306498515
				28:[f7<1.5219115] yes=53,no=54,missing=54
					53:leaf=0.00601441739
					54:leaf=0.00104362972
			14:[f2<2.01299977] yes=29,no=30,missing=30
				29:[f27<0.906355977] yes=55,no=56,missing=56
					55:leaf=0.00723093003
					56:leaf=0.0145807071
				30:[f6<1.79808497] yes=57,no=58,missing=58
					57:leaf=0.00668351678
					58:leaf=0.000561761844
booster[48]:
0:[f20<1.80432141] yes=1,no=2,missing=2
	1:[f20<-0.0103067849] yes=3,no=4,missing=4
		3:[f27<-0.609143198] yes=7,no=8,missing=8
			7:[f27<-1.61367321] yes=15,no=16,missing=16
				15:[f10<1.26962543] yes=27,no=28,missing=28
					27:leaf=-0.00209190464
					28:leaf=-0.00484707346
				16:[f20<-0.905298531] yes=29,no=30,missing=30
					29:leaf=-0.00196952978
					30:leaf=-0.000898516912
			8:[f20<-0.433806509] yes=17,no=18,missing=18
				17:[f20<-1.0473299] yes=31,no=32,missing=32
					31:leaf=-0.00315038464
					32:leaf=-0.000660755963
				18:[f27<1.59655452] yes=33,no=34,missing=34
					33:leaf=-9.03706314e-05
					34:leaf=0.00212620269
		4:[f27<3.00443912] yes=9,no=10,missing=10
			9:[f27<0.387760729] yes=19,no=20,missing=20
				19:[f27<-2.13103223] yes=35,no=36,missing=36
					35:leaf=-0.00145400839
					36:leaf=0.000441702752
				20:[f7<1.79737604] yes=37,no=38,missing=38
					37:leaf=0.00152451976
					38:leaf=-0.00161800778
			10:[f6<1.2679826] yes=21,no=22,missing=22
				21:leaf=0.00869689044
				22:leaf=0.00244621048
	2:[f27<2.17359304] yes=5,no=6,missing=6
		5:[f20<3.86020827] yes=11,no=12,missing=12
			11:[f27<-0.823629975] yes=23,no=24,missing=24
				23:[f4<2.04884481] yes=39,no=40,missing=40
					39:leaf=0.00381268794
					40:leaf=0.000200179318
				24:[f24<0.388792068] yes=41,no=42,missing=42
					41:leaf=0.00791766308
					42:leaf=0.00327553158
			12:[f8<0.822267175] yes=25,no=26,missing=26
				25:leaf=0.0136978868
				26:[f0<3.03881979] yes=43,no=44,missing=44
					43:leaf=0.00595202437
					44:leaf=0.000991010689
		6:[f17<-0.422344774] yes=13,no=14,missing=14
			13:leaf=0.00431267451
			14:leaf=0.0120906262
booster[49]:
0:[f20<1.40157521] yes=1,no=2,missing=2
	1:[f20<-0.234054729] yes=3,no=4,missing=4
		3:[f20<-0.937077224] yes=7,no=8,missing=8
			7:[f20<-1.07197452] yes=15,no=16,missing=16
				15:[f1<-0.675428092] yes=31,no=32,missing=32
					31:leaf=-0.00616164226
					32:leaf=-0.00156417384
				16:[f27<0.991634309] yes=33,no=34,missing=34
					33:leaf=-0.00167126209
					34:leaf=2.0939462e-05
			8:[f27<2.68354964] yes=17,no=18,missing=18
				17:[f27<0.203414798] yes=35,no=36,missing=36
					35:leaf=-0.000746553298
					36:leaf=-0.000134107177
				18:[f17<0.719082057] yes=37,no=38,missing=38
					37:leaf=0.00402598782
					38:leaf=0.0014699077
		4:[f27<0.806306541] yes=9,no=10,missing=10
			9:[f27<-2.95163178] yes=19,no=20,missing=20
				19:[f12<1.09607816] yes=39,no=40,missing=40
					39:leaf=-0.000523502473
					40:leaf=-0.00453598518
				20:[f3<1.38970995] yes=41,no=42,missing=42
					41:leaf=8.73715762e-05
					42:leaf=0.0026670075
			10:[f27<3.43872046] yes=21,no=22,missing=22
				21:[f2<1.89850736] yes=43,no=44,missing=44
					43:leaf=0.00153894955
					44:leaf=-0.00148087228
				22:leaf=0.00695138006
	2:[f20<3.47626996] yes=5,no=6,missing=6
		5:[f27<2.17359304] yes=11,no=12,missing=12
			11:[f27<0.387760729] yes=23,no=24,missing=24
				23:[f6<-0.145623729] yes=45,no=46,missing=46
					45:leaf=-0.00244109635
					46:leaf=0.00166388566
				24:[f17<-1.56377161] yes=47,no=48,missing=48
					47:leaf=-0.0038693666
					48:leaf=0.0032828846
			12:[f17<-0.764772832] yes=25,no=26,missing=26
				25:leaf=-0.000504302967
				26:[f22<2.07417583] yes=49,no=50,missing=50
					49:leaf=0.00417201547
					50:leaf=0.0107819643
		6:[f27<-0.117273934] yes=13,no=14,missing=14
			13:[f18<1.42071819] yes=27,no=28,missing=28
				27:[f11<1.57686985] yes=51,no=52,missing=52
					51:leaf=0.000502817973
					52:leaf=0.00359598803
				28:leaf=0.0071984292
			14:[f28<0.193077534] yes=29,no=30,missing=30
				29:[f10<0.325352699] yes=53,no=54,missing=54
					53:leaf=0.00160555844
					54:leaf=0.00604450237
				30:leaf=0.0118518285
booster[50]:
0:[f20<1.80432141] yes=1,no=2,missing=2
	1:[f20<0.221223697] yes=3,no=4,missing=4
		3:[f27<-1.24279416] yes=7,no=8,missing=8
			7:[f22<-0.882150292] yes=15,no=16,missing=16
				15:[f27<-1.94836438] yes=27,no=28,missing=28
					27:leaf=-0.00548037281
					28:leaf=-0.00257374416
				16:[f27<-2.39755845] yes=29,no=30,missing=30
					29:leaf=-0.00264447927
					30:leaf=-0.00111317693
			8:[f20<-0.689981699] yes=17,no=18,missing=18
				17:[f27<1.70970833] yes=31,no=32,missing=32
					31:leaf=-0.0010071398
					32:leaf=0.000905787281
				18:[f27<0.728348732] yes=33,no=34,missing=34
					33:leaf=-0.000279979286
					34:leaf=0.000613140524
		4:[f27<3.00443912] yes=9,no=10,missing=10
			9:[f22<2.07417583] yes=19,no=20,missing=20
				19:[f22<0.305444807] yes=35,no=36,missing=36
					35:leaf=0.000302020781
					36:leaf=0.00133141433
				20:[f4<1.63320315] yes=37,no=38,missing=38
					37:leaf=-0.00287786126
					38:leaf=-0.000136464834
			10:[f6<1.2679826] yes=21,no=22,missing=22
				21:leaf=0.00742750196
				22:leaf=0.00214734091
	2:[f27<2.17359304] yes=5,no=6,missing=6
		5:[f20<3.86020827] yes=11,no=12,missing=12
			11:[f22<1.0209887] yes=23,no=24,missing=24
				23:[f6<1.98538792] yes=39,no=40,missing=40
					39:leaf=-0.00256562233
					40:leaf=0.00173484627
				24:[f27<-2.05228353] yes=41,no=42,missing=42
					41:leaf=0.00014337858
					42:leaf=0.0030008608
			12:[f8<0.822267175] yes=25,no=26,missing=26
				25:leaf=0.0118979933
				26:[f0<3.03881979] yes=43,no=44,missing=44
					43:leaf=0.00501027098
					44:leaf=0.000761652016
		6:[f17<-0.422344774] yes=13,no=14,missing=14
			13:leaf=0.00374701805
			14:leaf=0.0102608111
booster[51]:
0:[f20<1.80432141] yes=1,no=2,missing=2
	1:[f20<-0.136124462] yes=3,no=4,missing=4
		3:[f27<0.228611708] yes=7,no=8,missing=8
			7:[f20<-1.03760171] yes=15,no=16,missing=16
				15:[f7<-0.280249327] yes=27,no=28,missing=28
					27:leaf=-0.00544818863
					28:leaf=-0.0020416656
				16:[f27<-2.39755845] yes=29,no=30,missing=30
					29:leaf=-0.00375500508
					30:leaf=-0.000612183474
			8:[f27<2.68354964] yes=17,no=18,missing=18
				17:[f20<-0.468179375] yes=31,no=32,missing=32
					31:leaf=-0.000439317868
